{"learner":{"attributes":{"best_iteration":"299","best_ntree_limit":"300","scikit_learn":"{\"use_label_encoder\": true, \"n_estimators\": 300, \"objective\": \"multi:softprob\", \"max_depth\": 4, \"learning_rate\": 0.05, \"verbosity\": null, \"booster\": null, \"tree_method\": null, \"gamma\": null, \"min_child_weight\": null, \"max_delta_step\": null, \"subsample\": 0.8, \"colsample_bytree\": 0.8, \"colsample_bylevel\": null, \"colsample_bynode\": null, \"reg_alpha\": null, \"reg_lambda\": null, \"scale_pos_weight\": null, \"base_score\": null, \"missing\": NaN, \"num_parallel_tree\": null, \"random_state\": 42, \"n_jobs\": null, \"monotone_constraints\": null, \"interaction_constraints\": null, \"importance_type\": null, \"gpu_id\": null, \"validate_parameters\": null, \"predictor\": null, \"enable_categorical\": false, \"kwargs\": {\"num_class\": 3, \"eval_metric\": \"mlogloss\"}, \"classes_\": [0, 1, 2], \"n_classes_\": 3, \"_le\": {\"classes_\": [0, 1, 2]}, \"_estimator_type\": \"classifier\"}"},"feature_names":["Tumor_max_length","AFP","Age","Child_Pugh_grade","CSPH","Hemodynamic_instability","Protrusion_from_surface"],"feature_types":["float","int","int","int","int","int","int"],"gradient_booster":{"model":{"gbtree_model_param":{"num_trees":"900","size_leaf_vector":"0"},"tree_info":[0,1,2,0,1,2,0,1,2,0,1,2,0,1,2,0,1,2,0,1,2,0,1,2,0,1,2,0,1,2,0,1,2,0,1,2,0,1,2,0,1,2,0,1,2,0,1,2,0,1,2,0,1,2,0,1,2,0,1,2,0,1,2,0,1,2,0,1,2,0,1,2,0,1,2,0,1,2,0,1,2,0,1,2,0,1,2,0,1,2,0,1,2,0,1,2,0,1,2,0,1,2,0,1,2,0,1,2,0,1,2,0,1,2,0,1,2,0,1,2,0,1,2,0,1,2,0,1,2,0,1,2,0,1,2,0,1,2,0,1,2,0,1,2,0,1,2,0,1,2,0,1,2,0,1,2,0,1,2,0,1,2,0,1,2,0,1,2,0,1,2,0,1,2,0,1,2,0,1,2,0,1,2,0,1,2,0,1,2,0,1,2,0,1,2,0,1,2,0,1,2,0,1,2,0,1,2,0,1,2,0,1,2,0,1,2,0,1,2,0,1,2,0,1,2,0,1,2,0,1,2,0,1,2,0,1,2,0,1,2,0,1,2,0,1,2,0,1,2,0,1,2,0,1,2,0,1,2,0,1,2,0,1,2,0,1,2,0,1,2,0,1,2,0,1,2,0,1,2,0,1,2,0,1,2,0,1,2,0,1,2,0,1,2,0,1,2,0,1,2,0,1,2,0,1,2,0,1,2,0,1,2,0,1,2,0,1,2,0,1,2,0,1,2,0,1,2,0,1,2,0,1,2,0,1,2,0,1,2,0,1,2,0,1,2,0,1,2,0,1,2,0,1,2,0,1,2,0,1,2,0,1,2,0,1,2,0,1,2,0,1,2,0,1,2,0,1,2,0,1,2,0,1,2,0,1,2,0,1,2,0,1,2,0,1,2,0,1,2,0,1,2,0,1,2,0,1,2,0,1,2,0,1,2,0,1,2,0,1,2,0,1,2,0,1,2,0,1,2,0,1,2,0,1,2,0,1,2,0,1,2,0,1,2,0,1,2,0,1,2,0,1,2,0,1,2,0,1,2,0,1,2,0,1,2,0,1,2,0,1,2,0,1,2,0,1,2,0,1,2,0,1,2,0,1,2,0,1,2,0,1,2,0,1,2,0,1,2,0,1,2,0,1,2,0,1,2,0,1,2,0,1,2,0,1,2,0,1,2,0,1,2,0,1,2,0,1,2,0,1,2,0,1,2,0,1,2,0,1,2,0,1,2,0,1,2,0,1,2,0,1,2,0,1,2,0,1,2,0,1,2,0,1,2,0,1,2,0,1,2,0,1,2,0,1,2,0,1,2,0,1,2,0,1,2,0,1,2,0,1,2,0,1,2,0,1,2,0,1,2,0,1,2,0,1,2,0,1,2,0,1,2,0,1,2,0,1,2,0,1,2,0,1,2,0,1,2,0,1,2,0,1,2,0,1,2,0,1,2,0,1,2,0,1,2,0,1,2,0,1,2,0,1,2,0,1,2,0,1,2,0,1,2,0,1,2,0,1,2,0,1,2,0,1,2,0,1,2,0,1,2,0,1,2,0,1,2,0,1,2,0,1,2,0,1,2,0,1,2,0,1,2,0,1,2,0,1,2,0,1,2,0,1,2,0,1,2,0,1,2,0,1,2,0,1,2,0,1,2,0,1,2,0,1,2,0,1,2,0,1,2,0,1,2,0,1,2,0,1,2,0,1,2,0,1,2,0,1,2,0,1,2,0,1,2,0,1,2,0,1,2,0,1,2,0,1,2,0,1,2,0,1,2,0,1,2,0,1,2,0,1,2,0,1,2,0,1,2,0,1,2,0,1,2,0,1,2,0,1,2,0,1,2,0,1,2,0,1,2,0,1,2,0,1,2,0,1,2,0,1,2,0,1,2,0,1,2,0,1,2,0,1,2,0,1,2,0,1,2,0,1,2,0,1,2,0,1,2,0,1,2,0,1,2,0,1,2,0,1,2,0,1,2,0,1,2,0,1,2,0,1,2,0,1,2,0,1,2,0,1,2,0,1,2,0,1,2,0,1,2],"trees":[{"base_weights":[-3.5032567E-1,-1.5136231E-1,-7.454668E-1,1.3062836E-1,-7.429761E-1,4.885177E-1,-7.3861724E-1,2.2018345E-1,6.4594895E-1],"categories":[],"categories_nodes":[],"categories_segments":[],"categories_sizes":[],"default_left":[true,true,false,true,false,true,false,false,false],"id":0,"left_children":[1,3,-1,5,-1,7,-1,-1,-1],"loss_changes":[3.8785904E1,5.520642E1,0E0,7.021865E1,0E0,6.6027603E0,0E0,0E0,0E0],"parents":[2147483647,0,0,1,1,3,3,5,5],"right_children":[2,4,-1,6,-1,8,-1,-1,-1],"split_conditions":[5E-1,5E-1,-3.7273344E-2,5E-1,-3.7148807E-2,6.1499996E0,-3.6930863E-2,1.1009173E-2,3.2297447E-2],"split_indices":[4,5,0,3,0,0,0,0,0],"split_type":[0,0,0,0,0,0,0,0,0],"sum_hessian":[4.9377774E2,3.293333E2,1.6444443E2,2.2355554E2,1.0577777E2,1.5866666E2,6.4888885E1,5.9555553E1,9.911111E1],"tree_param":{"num_deleted":"0","num_feature":"7","num_nodes":"9","size_leaf_vector":"0"}},{"base_weights":[-6.7857945E-1,-7.4778914E-1,-5.297742E-1,-5.466971E-1,-3.5294122E-1,-2.3762381E-1,-4.9180332E-1,-9.230773E-2,-4.0000004E-1],"categories":[],"categories_nodes":[],"categories_segments":[],"categories_sizes":[],"default_left":[true,false,true,false,true,true,false,false,false],"id":1,"left_children":[1,-1,3,-1,5,7,-1,-1,-1],"loss_changes":[4.7589417E0,0E0,2.9283905E-1,0E0,1.5536046E-1,2.2787505E-1,0E0,0E0,0E0],"parents":[2147483647,0,0,2,2,4,4,5,5],"right_children":[2,-1,4,-1,6,8,-1,-1,-1],"split_conditions":[5E-1,-3.7389457E-2,1.5E0,-2.7334854E-2,5E-1,5E-1,-2.4590166E-2,-4.6153865E-3,-2.0000001E-2],"split_indices":[5,0,3,0,2,6,0,0,0],"split_type":[0,0,0,0,0,0,0,0,0],"sum_hessian":[4.995555E2,3.382222E2,1.6133333E2,1.4533333E2,1.5999999E1,1.0222221E1,5.7777777E0,6.222222E0,3.9999998E0],"tree_param":{"num_deleted":"0","num_feature":"7","num_nodes":"9","size_leaf_vector":"0"}},{"base_weights":[1.0479041E0,7.331759E-1,1.4476479E0,3.423812E-1,1.4079655E0,1.4925865E0,8.727273E-1,-1.1091078E-1,1.3013436E0,1.4841735E0,4.9411762E-1,1.392E0,-6.1224496E-1,1.318681E-1,-1.8816572E-1,1.4719335E0,-6.1224496E-1,1.245283E0,-5.853659E-1],"categories":[],"categories_nodes":[],"categories_segments":[],"categories_sizes":[],"default_left":[true,true,true,true,true,false,true,true,true,false,true,false,false,false,false,false,false,false,false],"id":2,"left_children":[1,3,5,7,9,-1,11,13,15,-1,17,-1,-1,-1,-1,-1,-1,-1,-1],"loss_changes":[6.1969727E1,7.397043E1,4.372711E0,7.843682E1,6.4552917E0,0E0,1.49891815E1,2.335953E0,1.9798363E1,0E0,8.387169E0,0E0,0E0,0E0,0E0,0E0,0E0,0E0,0E0],"parents":[2147483647,0,0,1,1,2,2,3,3,4,4,6,6,7,7,8,8,10,10],"right_children":[2,4,6,8,10,-1,12,14,16,-1,18,-1,-1,-1,-1,-1,-1,-1,-1],"split_conditions":[5E-1,5E-1,1.079E3,5E-1,1.8045E3,7.462933E-2,5E-1,5.1E0,9.96E2,7.420868E-2,5E-1,6.96E-2,-3.0612249E-2,6.593405E-3,-9.408287E-3,7.359668E-2,-3.0612249E-2,6.2264152E-2,-2.9268295E-2],"split_indices":[2,4,1,5,1,0,5,0,1,0,5,0,0,0,0,0,0,0,0],"split_type":[0,0,0,0,0,0,0,0,0,0,0,0,0,0,0,0,0,0,0],"sum_hessian":[4.9999997E2,2.813333E2,2.1866666E2,1.791111E2,1.0222221E2,2.0133333E2,1.7333332E1,1.2222221E2,5.6888885E1,9.377777E1,8.444444E0,1.2888888E1,4.444444E0,2.9333332E1,9.2888885E1,5.2444443E1,4.444444E0,4.8888884E0,3.5555553E0],"tree_param":{"num_deleted":"0","num_feature":"7","num_nodes":"19","size_leaf_vector":"0"}},{"base_weights":[-3.66104E-1,-1.9399074E-1,-7.3124367E-1,5.482158E-2,-7.3258245E-1,-1.3236913E-1,1.335547E-1,-9.516541E-2,-5.9603876E-1,1.5642379E-1,-4.6721628E-1],"categories":[],"categories_nodes":[],"categories_segments":[],"categories_sizes":[],"default_left":[true,true,false,true,false,true,true,false,false,false,false],"id":3,"left_children":[1,3,-1,5,-1,7,9,-1,-1,-1,-1],"loss_changes":[3.1140282E1,4.555768E1,0E0,3.4555242E0,0E0,1.1432927E0,2.3358738E0,0E0,0E0,0E0,0E0],"parents":[2147483647,0,0,1,1,3,3,5,5,6,6],"right_children":[2,4,-1,6,-1,8,10,-1,-1,-1,-1],"split_conditions":[5E-1,5E-1,-3.6562186E-2,5.45E0,-3.662912E-2,2.2705E3,3.982E3,-4.7582705E-3,-2.9801939E-2,7.82119E-3,-2.3360815E-2],"split_indices":[5,3,0,0,0,1,1,0,0,0,0],"split_type":[0,0,0,0,0,0,0,0,0,0,0],"sum_hessian":[4.9676346E2,3.3866205E2,1.5810143E2,2.3226237E2,1.0639965E2,6.856515E1,1.6369724E2,6.4588005E1,3.9771395E0,1.584069E2,5.2903285E0],"tree_param":{"num_deleted":"0","num_feature":"7","num_nodes":"11","size_leaf_vector":"0"}},{"base_weights":[-6.7813456E-1,-7.354802E-1,-5.3548995E-2,-7.113718E-1,1.3830539E0],"categories":[],"categories_nodes":[],"categories_segments":[],"categories_sizes":[],"default_left":[true,false,true,false,false],"id":4,"left_children":[1,-1,3,-1,-1],"loss_changes":[1.7306198E1,0E0,4.0489002E1,0E0,0E0],"parents":[2147483647,0,0,2,2],"right_children":[2,-1,4,-1,-1],"split_conditions":[9.96E2,-3.677401E-2,5E-1,-3.556859E-2,6.91527E-2],"split_indices":[1,0,5,0,0],"split_type":[0,0,0,0,0],"sum_hessian":[4.832796E2,4.4247656E2,4.0803047E1,2.8333784E1,1.2469262E1],"tree_param":{"num_deleted":"0","num_feature":"7","num_nodes":"5","size_leaf_vector":"0"}},{"base_weights":[9.6451795E-1,7.7731174E-1,1.3408595E0,5.0034565E-1,1.3016857E0,1.4068063E0,1.177785E0,1.7225383E-1,1.214556E0,1.3089025E0,4.0183595E-1,4.040547E-1,1.1902057E0,3.9344966E-1,2.1755058E-2,2.200424E-1,1.2377921E0],"categories":[],"categories_nodes":[],"categories_segments":[],"categories_sizes":[],"default_left":[true,true,true,true,true,false,true,true,true,false,false,false,false,false,false,false,false],"id":5,"left_children":[1,3,5,7,9,-1,11,13,15,-1,-1,-1,-1,-1,-1,-1,-1],"loss_changes":[3.4239258E1,4.826381E1,1.1727905E-1,5.1815567E1,2.259674E-1,0E0,3.466034E-2,5.094668E0,1.3387833E0,0E0,0E0,0E0,0E0,0E0,0E0,0E0,0E0],"parents":[2147483647,0,0,1,1,2,2,3,3,4,4,6,6,7,7,8,8],"right_children":[2,4,6,8,10,-1,12,14,16,-1,-1,-1,-1,-1,-1,-1,-1],"split_conditions":[5E-1,5E-1,5E-1,5E-1,1.375E1,7.034032E-2,1.35E0,6.1499996E0,1.45E0,6.5445125E-2,2.0091798E-2,2.0202735E-2,5.9510287E-2,1.9672483E-2,1.087753E-3,1.100212E-2,6.1889607E-2],"split_indices":[3,4,5,5,0,0,0,0,0,0,0,0,0,0,0,0,0],"split_type":[0,0,0,0,0,0,0,0,0,0,0,0,0,0,0,0,0],"sum_hessian":[4.9977762E2,3.358025E2,1.6397511E2,2.2101828E2,1.14784225E2,1.1132775E2,5.2647366E1,1.5229749E2,6.872079E1,1.1342001E2,1.3642159E0,1.3615556E0,5.1285812E1,6.1011467E1,9.1286026E1,1.8079926E0,6.691279E1],"tree_param":{"num_deleted":"0","num_feature":"7","num_nodes":"17","size_leaf_vector":"0"}},{"base_weights":[-3.2782978E-1,-1.093768E-2,-7.3105735E-1,2.6153582E-1,-7.138221E-1,8.8701355E-1,2.4733369E-1,-3.2120115E-1,2.6548725E-1],"categories":[],"categories_nodes":[],"categories_segments":[],"categories_sizes":[],"default_left":[true,true,false,true,false,false,true,false,false],"id":6,"left_children":[1,3,-1,5,-1,-1,7,-1,-1],"loss_changes":[6.3783443E1,5.3918175E1,0E0,1.5831118E0,0E0,0E0,2.1473427E0,0E0,0E0],"parents":[2147483647,0,0,1,1,3,3,6,6],"right_children":[2,4,-1,6,-1,-1,8,-1,-1],"split_conditions":[5E-1,5E-1,-3.655287E-2,1.1500001E0,-3.569111E-2,4.435068E-2,2.65E0,-1.6060058E-2,1.3274363E-2],"split_indices":[2,5,0,0,0,0,0,0,0],"split_type":[0,0,0,0,0,0,0,0,0],"sum_hessian":[4.9823007E2,2.7955667E2,2.1867339E2,2.0191295E2,7.7643745E1,3.1184108E0,1.9879453E2,5.6346498E0,1.9315988E2],"tree_param":{"num_deleted":"0","num_feature":"7","num_nodes":"9","size_leaf_vector":"0"}},{"base_weights":[-6.7247653E-1,-7.2297204E-1,-1.22738816E-1,-7.015929E-1,1.3190032E0],"categories":[],"categories_nodes":[],"categories_segments":[],"categories_sizes":[],"default_left":[true,false,true,false,false],"id":7,"left_children":[1,-1,3,-1,-1],"loss_changes":[1.3339066E1,0E0,3.589204E1,0E0,0E0],"parents":[2147483647,0,0,2,2],"right_children":[2,-1,4,-1,-1],"split_conditions":[1.003E3,-3.6148604E-2,5E-1,-3.5079647E-2,6.595016E-2],"split_indices":[1,0,5,0,0],"split_type":[0,0,0,0,0],"sum_hessian":[4.827223E2,4.418239E2,4.0898376E1,2.9548237E1,1.1350138E1],"tree_param":{"num_deleted":"0","num_feature":"7","num_nodes":"5","size_leaf_vector":"0"}},{"base_weights":[9.33863E-1,6.414098E-1,1.2929392E0,2.8615358E-1,1.243757E0,-1.472106E-1,1.2604301E0,-2.0280732E-1,1.9077322E-1,3.825331E-1,1.2756941E0],"categories":[],"categories_nodes":[],"categories_segments":[],"categories_sizes":[],"default_left":[true,true,false,true,false,true,true,false,false,false,false],"id":8,"left_children":[1,3,-1,5,-1,7,9,-1,-1,-1,-1],"loss_changes":[5.3317413E1,6.0878075E1,0E0,7.673162E1,0E0,2.4134037E0,2.6133728E-1,0E0,0E0,0E0,0E0],"parents":[2147483647,0,0,1,1,3,3,5,5,6,6],"right_children":[2,4,-1,6,-1,8,10,-1,-1,-1,-1],"split_conditions":[5E-1,5E-1,6.464696E-2,5E-1,6.218785E-2,1.055E1,1.95E0,-1.0140366E-2,9.538661E-3,1.9126656E-2,6.378471E-2],"split_indices":[2,4,0,3,0,0,0,0,0,0,0],"split_type":[0,0,0,0,0,0,0,0,0,0,0],"sum_hessian":[5.146191E2,2.8515668E2,2.2946243E2,1.8029576E2,1.0486092E2,1.2537644E2,5.4919308E1,1.0800937E2,1.7367077E1,1.3839478E0,5.3535362E1],"tree_param":{"num_deleted":"0","num_feature":"7","num_nodes":"11","size_leaf_vector":"0"}},{"base_weights":[-3.140451E-1,-1.3870864E-2,-7.174556E-1,3.7064996E-1,-7.158711E-1,8.2756746E-1,-7.03218E-1,9.226322E-1,6.7543787E-1],"categories":[],"categories_nodes":[],"categories_segments":[],"categories_sizes":[],"default_left":[true,true,false,true,false,true,false,false,false],"id":9,"left_children":[1,3,-1,5,-1,7,-1,-1,-1],"loss_changes":[5.8688774E1,7.556385E1,0E0,8.933879E1,0E0,1.2186584E0,0E0,0E0,0E0],"parents":[2147483647,0,0,1,1,3,3,5,5],"right_children":[2,4,-1,6,-1,8,-1,-1,-1],"split_conditions":[5E-1,5E-1,-3.5872784E-2,5E-1,-3.5793554E-2,5E-1,-3.51609E-2,4.613161E-2,3.3771895E-2],"split_indices":[2,4,0,5,0,6,0,0,0],"split_type":[0,0,0,0,0,0,0,0,0],"sum_hessian":[4.8373904E2,2.7795187E2,2.0578717E2,1.7988942E2,9.806247E1,1.263559E2,5.353351E1,7.464558E1,5.1710327E1],"tree_param":{"num_deleted":"0","num_feature":"7","num_nodes":"9","size_leaf_vector":"0"}},{"base_weights":[-6.59642E-1,-7.1127033E-1,-1.3576525E-1,-2.1679063E-1,7.807828E-1,1.3493593E-1,-3.98591E-1,-2.767244E-1,5.849327E-1,4.0745363E-1,-4.5729774E-1],"categories":[],"categories_nodes":[],"categories_segments":[],"categories_sizes":[],"default_left":[true,false,true,true,false,true,true,false,false,false,false],"id":10,"left_children":[1,-1,3,5,-1,7,9,-1,-1,-1,-1],"loss_changes":[1.2532745E1,0E0,3.3718898E0,2.6374426E0,0E0,2.8507404E0,1.4587612E0,0E0,0E0,0E0,0E0],"parents":[2147483647,0,0,2,2,3,3,5,5,6,6],"right_children":[2,-1,4,6,-1,8,10,-1,-1,-1,-1],"split_conditions":[1.003E3,-3.5563517E-2,1.1E1,5.8500004E0,3.9039142E-2,4.9E0,1.0425E3,-1.383622E-2,2.9246634E-2,2.0372681E-2,-2.2864887E-2],"split_indices":[1,0,0,0,0,0,1,0,0,0,0],"split_type":[0,0,0,0,0,0,0,0,0,0,0],"sum_hessian":[4.6594144E2,4.238164E2,4.2125046E1,3.9405006E1,2.7200406E0,1.3515174E1,2.5889833E1,7.2593346E0,6.25584E0,1.3543324E0,2.45355E1],"tree_param":{"num_deleted":"0","num_feature":"7","num_nodes":"11","size_leaf_vector":"0"}},{"base_weights":[8.7943465E-1,6.1038774E-1,1.2117794E0,3.3953026E-1,1.2075158E0,1.2532163E0,6.6167855E-1,6.1714232E-2,1.047074E0,1.2362568E0,5.5646632E-2,1.1822319E0,-6.4546496E-1,1.2019825E-1,-5.126531E-2,1.2491251E0,-6.512669E-1,1.2560588E0,7.234971E-1],"categories":[],"categories_nodes":[],"categories_segments":[],"categories_sizes":[],"default_left":[true,true,true,true,true,false,true,true,true,true,false,false,false,false,false,false,false,false,false],"id":11,"left_children":[1,3,5,7,9,-1,11,13,15,17,-1,-1,-1,-1,-1,-1,-1,-1,-1],"loss_changes":[4.734613E1,4.798211E1,4.6316833E0,4.066938E1,3.009262E0,0E0,1.3623646E1,9.963834E-1,2.0841133E1,1.184082E-2,0E0,0E0,0E0,0E0,0E0,0E0,0E0,0E0,0E0],"parents":[2147483647,0,0,1,1,2,2,3,3,4,4,6,6,7,7,8,8,9,9],"right_children":[2,4,6,8,10,-1,12,14,16,18,-1,-1,-1,-1,-1,-1,-1,-1,-1],"split_conditions":[5E-1,5E-1,1.079E3,5E-1,3.867E3,6.266081E-2,5E-1,2.11E2,9.96E2,1.4355E3,2.7823315E-3,5.9111595E-2,-3.2273248E-2,6.0099126E-3,-2.5632656E-3,6.2456258E-2,-3.2563344E-2,6.280294E-2,3.6174856E-2],"split_indices":[2,3,1,5,1,0,5,1,1,1,0,0,0,0,0,0,0,0,0],"split_type":[0,0,0,0,0,0,0,0,0,0,0,0,0,0,0,0,0,0,0],"sum_hessian":[5.367743E2,2.982031E2,2.3857117E2,2.0622705E2,9.197605E1,2.2067076E2,1.7900412E1,1.4886331E2,5.7363743E1,8.966549E1,2.31056E0,1.287047E1,5.029941E0,9.8045845E1,5.081746E1,5.1501167E1,5.8625765E0,8.493579E1,4.729702E0],"tree_param":{"num_deleted":"0","num_feature":"7","num_nodes":"19","size_leaf_vector":"0"}},{"base_weights":[-3.0336905E-1,-9.5492445E-2,-7.0514953E-1,1.836972E-1,-6.9525325E-1,5.2207017E-1,-7.0816785E-1,3.3530673E-1,6.283095E-1],"categories":[],"categories_nodes":[],"categories_segments":[],"categories_sizes":[],"default_left":[true,true,false,true,false,true,false,false,false],"id":12,"left_children":[1,3,-1,5,-1,7,-1,-1,-1],"loss_changes":[4.0013992E1,5.3278984E1,0E0,6.597334E1,0E0,2.9276924E0,0E0,0E0,0E0],"parents":[2147483647,0,0,1,1,3,3,5,5],"right_children":[2,4,-1,6,-1,8,-1,-1,-1],"split_conditions":[5E-1,5E-1,-3.5257477E-2,5E-1,-3.4762662E-2,6.1499996E0,-3.5408393E-2,1.6765337E-2,3.1415474E-2],"split_indices":[4,5,0,3,0,0,0,0,0],"split_type":[0,0,0,0,0,0,0,0,0],"sum_hessian":[4.7889658E2,3.1642145E2,1.6247514E2,2.1638675E2,1.00034676E2,1.5717087E2,5.921588E1,5.849527E1,9.8675606E1],"tree_param":{"num_deleted":"0","num_feature":"7","num_nodes":"9","size_leaf_vector":"0"}},{"base_weights":[-6.406208E-1,-6.9960093E-1,-5.065599E-2,-6.8307185E-1,1.257662E0],"categories":[],"categories_nodes":[],"categories_segments":[],"categories_sizes":[],"default_left":[true,false,true,false,false],"id":13,"left_children":[1,-1,3,-1,-1],"loss_changes":[1.6198273E1,0E0,3.6834343E1,0E0,0E0],"parents":[2147483647,0,0,2,2],"right_children":[2,-1,4,-1,-1],"split_conditions":[1.003E3,-3.4980047E-2,5E-1,-3.415359E-2,6.28831E-2],"split_indices":[1,0,5,0,0],"split_type":[0,0,0,0,0],"sum_hessian":[4.655374E2,4.2305756E2,4.2479847E1,2.8959354E1,1.3520494E1],"tree_param":{"num_deleted":"0","num_feature":"7","num_nodes":"5","size_leaf_vector":"0"}},{"base_weights":[8.2446355E-1,6.45557E-1,1.130504E0,4.463594E-1,1.1161357E0,1.1840202E0,5.0882924E-1,4.9213824E-1,-2.3489932E-2,1.1853029E0,4.127617E-1,6.411265E-1,-2.4170674E-1,6.2228787E-1,4.2604816E-1,2.4766031E-1,-2.0672499E-1,6.246627E-1,-2.3679058E-1,4.900664E-2,9.0732366E-1],"categories":[],"categories_nodes":[],"categories_segments":[],"categories_sizes":[],"default_left":[true,true,true,true,true,false,true,true,true,false,true,true,false,false,false,false,false,false,false,false,false],"id":14,"left_children":[1,3,5,7,9,-1,11,13,15,-1,17,19,-1,-1,-1,-1,-1,-1,-1,-1,-1],"loss_changes":[2.8245483E1,3.1026016E1,5.8486023E0,5.129631E0,4.344284E0,0E0,1.8551211E0,1.6002846E0,1.148232E0,0E0,1.5834407E0,2.293106E0,0E0,0E0,0E0,0E0,0E0,0E0,0E0,0E0,0E0],"parents":[2147483647,0,0,1,1,2,2,3,3,4,4,6,6,7,7,8,8,10,10,11,11],"right_children":[2,4,6,8,10,-1,12,14,16,-1,18,20,-1,-1,-1,-1,-1,-1,-1,-1,-1],"split_conditions":[5E-1,5E-1,1.2565E3,9.96E2,1.153E3,5.920101E-2,1.1049999E1,5.55E0,6.6E0,5.9265144E-2,9.549999E0,6.1000004E0,-1.2085337E-2,3.1114394E-2,2.1302408E-2,1.2383016E-2,-1.0336249E-2,3.1233136E-2,-1.18395295E-2,2.450332E-3,4.5366183E-2],"split_indices":[4,3,1,1,1,0,0,0,0,0,0,0,0,0,0,0,0,0,0,0,0],"split_type":[0,0,0,0,0,0,0,0,0,0,0,0,0,0,0,0,0,0,0,0,0],"sum_hessian":[5.282031E2,3.353008E2,1.929023E2,2.3694832E2,9.835251E1,1.7677982E2,1.6122473E1,2.1586818E2,2.1080133E1,8.8923E1,9.429514E0,1.3830363E1,2.2921085E0,6.986632E1,1.4600186E2,8.358973E0,1.2721161E1,7.1389265E0,2.2905872E0,4.656562E0,9.173801E0],"tree_param":{"num_deleted":"0","num_feature":"7","num_nodes":"21","size_leaf_vector":"0"}},{"base_weights":[-2.9575804E-1,5.105097E-4,-7.003051E-1,3.395409E-1,-6.9448847E-1,7.641616E-1,-6.991037E-1,8.2105625E-1,3.8570493E-1],"categories":[],"categories_nodes":[],"categories_segments":[],"categories_sizes":[],"default_left":[true,true,false,true,false,true,false,false,false],"id":15,"left_children":[1,3,-1,5,-1,7,-1,-1,-1],"loss_changes":[5.6481277E1,6.456791E1,0E0,8.176319E1,0E0,2.508583E0,0E0,0E0,0E0],"parents":[2147483647,0,0,1,1,3,3,5,5],"right_children":[2,4,-1,6,-1,8,-1,-1,-1],"split_conditions":[5E-1,5E-1,-3.5015255E-2,5E-1,-3.4724426E-2,1.055E1,-3.4955185E-2,4.1052815E-2,1.9285247E-2],"split_indices":[2,4,0,3,0,0,0,0,0],"split_type":[0,0,0,0,0,0,0,0,0],"sum_hessian":[4.7024548E2,2.7202658E2,1.9821892E2,1.8318013E2,8.884643E1,1.3021121E2,5.2968925E1,1.1217769E2,1.8033527E1],"tree_param":{"num_deleted":"0","num_feature":"7","num_nodes":"9","size_leaf_vector":"0"}},{"base_weights":[-6.288743E-1,-6.874039E-1,-5.001452E-1,-5.216971E-1,-2.933696E-1,-5.391533E-1,-2.7471563E-1,2.3161024E-2,-3.2272577E-1,3.905234E-1,-4.9969846E-1,-3.787213E-1,-1.042126E-1],"categories":[],"categories_nodes":[],"categories_segments":[],"categories_sizes":[],"default_left":[true,false,true,true,true,false,true,false,true,false,false,false,false],"id":16,"left_children":[1,-1,3,5,7,-1,9,-1,11,-1,-1,-1,-1],"loss_changes":[3.0429993E0,0E0,4.8942566E-1,4.092369E-1,1.551547E-1,0E0,1.77753E0,0E0,1.3931072E-1,0E0,0E0,0E0,0E0],"parents":[2147483647,0,0,2,2,3,3,4,4,6,6,8,8],"right_children":[2,-1,4,6,8,-1,10,-1,12,-1,-1,-1,-1],"split_conditions":[5E-1,-3.4370195E-2,1.5E0,1.175E1,2E0,-2.6957665E-2,1.185E1,1.1580512E-3,1.11E1,1.952617E-2,-2.4984924E-2,-1.8936066E-2,-5.21063E-3],"split_indices":[5,0,3,0,0,0,0,0,0,0,0,0,0],"split_type":[0,0,0,0,0,0,0,0,0,0,0,0,0],"sum_hessian":[4.4850748E2,3.053384E2,1.4316907E2,1.2827603E2,1.4893033E1,1.18703354E2,9.572686E0,1.2819154E0,1.3611118E1,2.2333188E0,7.3393674E0,1.0251042E1,3.3600752E0],"tree_param":{"num_deleted":"0","num_feature":"7","num_nodes":"13","size_leaf_vector":"0"}},{"base_weights":[7.7895474E-1,6.1728173E-1,1.0738593E0,4.1421503E-1,1.0768813E0,1.130274E0,9.1363883E-1,1.17606536E-1,1.0407747E0,9.447893E-1,4.916378E-1,3.9371693E-1,-2.5281565E-2,3.4524688E-1,1.0491282E0,-5.3281765E-2,6.755257E-1],"categories":[],"categories_nodes":[],"categories_segments":[],"categories_sizes":[],"default_left":[true,true,true,true,false,false,true,true,true,false,true,false,false,false,false,false,false],"id":17,"left_children":[1,3,5,7,-1,-1,9,11,13,-1,15,-1,-1,-1,-1,-1,-1],"loss_changes":[2.4760162E1,3.1916977E1,6.6174316E-1,4.4874897E1,0E0,0E0,2.4581909E-1,6.537803E0,8.9027405E-2,0E0,6.171138E-1,0E0,0E0,0E0,0E0,0E0,0E0],"parents":[2147483647,0,0,1,1,2,2,3,3,6,6,7,7,8,8,10,10],"right_children":[2,4,6,8,-1,-1,10,12,14,-1,16,-1,-1,-1,-1,-1,-1],"split_conditions":[5E-1,5E-1,5E-1,5E-1,5.3844064E-2,5.6513704E-2,1.135E1,5.45E0,1.45E0,4.7239464E-2,1.21E1,1.9685848E-2,-1.2640783E-3,1.7262345E-2,5.245641E-2,-2.6640883E-3,3.3776287E-2],"split_indices":[4,3,5,5,0,0,0,0,0,0,0,0,0,0,0,0,0],"split_type":[0,0,0,0,0,0,0,0,0,0,0,0,0,0,0,0,0],"sum_hessian":[5.322223E2,3.4576157E2,1.8646071E2,2.4112541E2,1.04636154E2,1.334261E2,5.3034615E1,1.6445935E2,7.666607E1,4.8235245E1,4.799371E0,5.5485775E1,1.0897357E2,1.412203E0,7.525387E1,1.390151E0,3.40922E0],"tree_param":{"num_deleted":"0","num_feature":"7","num_nodes":"17","size_leaf_vector":"0"}},{"base_weights":[-3.0384582E-1,-1.09165385E-1,-6.82539E-1,1.351066E-1,-6.8036956E-1,-8.190116E-2,2.2827286E-1,-5.8343228E-2,-4.9848583E-1,3.3713397E-1,1.7546947E-1],"categories":[],"categories_nodes":[],"categories_segments":[],"categories_sizes":[],"default_left":[true,true,false,true,false,true,true,false,false,false,false],"id":18,"left_children":[1,3,-1,5,-1,7,9,-1,-1,-1,-1],"loss_changes":[3.478441E1,4.383117E1,0E0,4.474924E0,0E0,6.2786067E-1,8.287773E-1,0E0,0E0,0E0,0E0],"parents":[2147483647,0,0,1,1,3,3,5,5,6,6],"right_children":[2,4,-1,6,-1,8,10,-1,-1,-1,-1],"split_conditions":[5E-1,5E-1,-3.412695E-2,5.55E0,-3.401848E-2,4.0285E3,7.25E0,-2.9171614E-3,-2.4924291E-2,1.6856698E-2,8.773474E-3],"split_indices":[4,5,0,0,0,1,0,0,0,0,0],"split_type":[0,0,0,0,0,0,0,0,0,0,0],"sum_hessian":[4.7182913E2,3.1247745E2,1.5935168E2,2.194111E2,9.3066345E1,6.594034E1,1.5347076E2,6.3490017E1,2.4503195E0,4.836836E1,1.0510241E2],"tree_param":{"num_deleted":"0","num_feature":"7","num_nodes":"11","size_leaf_vector":"0"}},{"base_weights":[-6.26469E-1,-6.795864E-1,-1.0168341E-1,-2.3057E-1,1.13135114E-1,1.6571416E-1,-3.675161E-1,-6.364373E-2,3.5268605E-1,4.013177E-1,-9.4745874E-2,-5.9788334E-1,-2.1270299E-1,-1.6097023E-1,2.61091E-1,5.897629E-1,-1.5086529E-1],"categories":[],"categories_nodes":[],"categories_segments":[],"categories_sizes":[],"default_left":[true,false,true,true,true,true,true,true,true,false,false,false,false,false,false,false,false],"id":19,"left_children":[1,-1,3,5,7,9,11,13,15,-1,-1,-1,-1,-1,-1,-1,-1],"loss_changes":[1.213327E1,0E0,1.172648E0,1.4833913E0,7.0846415E-1,4.9341297E-1,5.786364E-1,3.6339816E-1,9.283943E-1,0E0,0E0,0E0,0E0,0E0,0E0,0E0,0E0],"parents":[2147483647,0,0,2,2,3,3,4,4,5,5,6,6,7,7,8,8],"right_children":[2,-1,4,6,8,10,12,14,16,-1,-1,-1,-1,-1,-1,-1,-1],"split_conditions":[1.0215E3,-3.3979323E-2,5E-1,1.98E3,5E-1,5E-1,3.461E3,5.3465E3,3.735E3,2.0065885E-2,-4.737294E-3,-2.9894168E-2,-1.063515E-2,-8.048511E-3,1.305455E-2,2.9488146E-2,-7.5432644E-3],"split_indices":[1,0,4,1,6,6,1,1,1,0,0,0,0,0,0,0,0],"split_type":[0,0,0,0,0,0,0,0,0,0,0,0,0,0,0,0,0],"sum_hessian":[4.3674884E2,3.9633762E2,4.041124E1,2.5211529E1,1.5199712E1,6.4209647E0,1.8790565E1,9.168242E0,6.0314693E0,3.087401E0,3.333564E0,6.4020805E0,1.2388484E1,7.442075E0,1.7261674E0,3.9843779E0,2.0470912E0],"tree_param":{"num_deleted":"0","num_feature":"7","num_nodes":"17","size_leaf_vector":"0"}},{"base_weights":[7.336895E-1,4.624314E-1,1.0600861E0,1.4298359E-1,1.0128003E0,1.1110427E0,9.455664E-1,-2.1568906E-1,1.0471945E0,1.0859643E0,7.896652E-1,-7.5163585E-1,9.6761185E-1,8.2510394E-1,2.5678506E-1],"categories":[],"categories_nodes":[],"categories_segments":[],"categories_sizes":[],"default_left":[true,true,true,true,true,false,false,true,false,false,true,false,false,false,false],"id":20,"left_children":[1,3,5,7,9,-1,-1,11,-1,-1,13,-1,-1,-1,-1],"loss_changes":[4.9100067E1,5.394661E1,4.2840576E-1,6.373828E1,9.8441315E-1,0E0,0E0,9.0176125E1,0E0,0E0,3.834648E-1,0E0,0E0,0E0,0E0],"parents":[2147483647,0,0,1,1,2,2,3,3,4,4,7,7,10,10],"right_children":[2,4,6,8,10,-1,-1,12,-1,-1,14,-1,-1,-1,-1],"split_conditions":[5E-1,5E-1,5E-1,5E-1,5E-1,5.5552136E-2,4.7278322E-2,5E-1,5.2359726E-2,5.429822E-2,1.5E0,-3.7581794E-2,4.8380595E-2,4.12552E-2,1.2839253E-2],"split_indices":[2,4,5,3,5,0,0,5,0,0,3,0,0,0,0],"split_type":[0,0,0,0,0,0,0,0,0,0,0,0,0,0,0],"sum_hessian":[5.591033E2,3.066625E2,2.5244078E2,1.9483514E2,1.11827354E2,1.6868233E2,8.375845E1,1.4004504E2,5.4790096E1,8.1302246E1,3.0525106E1,9.663942E1,4.340563E1,2.810746E1,2.4176457E0],"tree_param":{"num_deleted":"0","num_feature":"7","num_nodes":"15","size_leaf_vector":"0"}},{"base_weights":[-2.9108328E-1,-4.0365704E-3,-6.8475103E-1,3.5078052E-1,-6.7463595E-1,7.0631385E-1,-6.794635E-1,7.531005E-1,3.767815E-1],"categories":[],"categories_nodes":[],"categories_segments":[],"categories_sizes":[],"default_left":[true,true,false,true,false,true,false,false,false],"id":21,"left_children":[1,3,-1,5,-1,7,-1,-1,-1],"loss_changes":[5.157852E1,6.3287952E1,0E0,6.4196915E1,0E0,1.7176971E0,0E0,0E0,0E0],"parents":[2147483647,0,0,1,1,3,3,5,5],"right_children":[2,4,-1,6,-1,8,-1,-1,-1],"split_conditions":[5E-1,5E-1,-3.4237552E-2,5E-1,-3.37318E-2,1.055E1,-3.3973176E-2,3.7655026E-2,1.8839074E-2],"split_indices":[2,4,0,3,0,0,0,0,0],"split_type":[0,0,0,0,0,0,0,0,0],"sum_hessian":[4.554674E2,2.6398813E2,1.9147928E2,1.729542E2,9.103392E1,1.2881503E2,4.413916E1,1.1167428E2,1.714076E1],"tree_param":{"num_deleted":"0","num_feature":"7","num_nodes":"9","size_leaf_vector":"0"}},{"base_weights":[-6.1590236E-1,-6.6987914E-1,-4.9354216E-1,5.6313436E-2,-5.099427E-1,4.191132E-1,-4.1649765E-1,-5.1549125E-1,2.957149E-2],"categories":[],"categories_nodes":[],"categories_segments":[],"categories_sizes":[],"default_left":[true,false,true,true,true,false,false,false,false],"id":22,"left_children":[1,-1,3,5,7,-1,-1,-1,-1],"loss_changes":[2.459488E0,0E0,1.2290916E0,9.903541E-1,4.0246964E-1,0E0,0E0,0E0,0E0],"parents":[2147483647,0,0,2,2,3,3,4,4],"right_children":[2,-1,4,6,8,-1,-1,-1,-1],"split_conditions":[5E-1,-3.349396E-2,1.45E0,5E-1,1.5450001E1,2.095566E-2,-2.0824883E-2,-2.5774563E-2,1.4785746E-3],"split_indices":[5,0,0,2,0,0,0,0,0],"split_type":[0,0,0,0,0,0,0,0,0],"sum_hessian":[4.2144696E2,2.8933704E2,1.3210991E2,3.7558274E0,1.2835408E2,2.1894102E0,1.5664175E0,1.2709155E2,1.2625253E0],"tree_param":{"num_deleted":"0","num_feature":"7","num_nodes":"9","size_leaf_vector":"0"}},{"base_weights":[7.055705E-1,4.4762585E-1,1.0134737E0,2.81413E-1,8.6037195E-1,1.0493556E0,5.435337E-1,-3.256567E-1,2.909684E-1,1.0408556E0,-7.051326E-1,1.032591E0,-6.7724884E-1,-4.4291916E-1,-7.499925E-2,8.249427E-1,2.779552E-1],"categories":[],"categories_nodes":[],"categories_segments":[],"categories_sizes":[],"default_left":[true,true,true,true,true,false,true,true,true,false,false,false,false,false,false,false,false],"id":23,"left_children":[1,3,5,7,9,-1,11,13,15,-1,-1,-1,-1,-1,-1,-1,-1],"loss_changes":[4.2523193E1,2.008096E1,3.57576E0,1.3284531E0,2.462645E1,0E0,1.23515E1,7.752094E-2,1.2293072E0,0E0,0E0,0E0,0E0,0E0,0E0,0E0,0E0],"parents":[2147483647,0,0,1,1,2,2,3,3,4,4,6,6,7,7,8,8],"right_children":[2,4,6,8,10,-1,12,14,16,-1,-1,-1,-1,-1,-1,-1,-1],"split_conditions":[5E-1,5E-1,1.079E3,1.1500001E0,9.96E2,5.2467782E-2,5E-1,4.355E2,2.1E0,5.2042782E-2,-3.525663E-2,5.162955E-2,-3.386244E-2,-2.2145959E-2,-3.7499627E-3,4.1247137E-2,1.3897761E-2],"split_indices":[2,5,1,0,1,0,5,1,0,0,0,0,0,0,0,0,0],"split_type":[0,0,0,0,0,0,0,0,0,0,0,0,0,0,0,0,0],"sum_hessian":[5.4012E2,2.9523874E2,2.4488127E2,2.1167786E2,8.356087E1,2.2636446E2,1.8516823E1,2.767586E0,2.0891028E2,7.5223625E1,8.337241E0,1.3330608E1,5.186214E0,1.3629446E0,1.4046414E0,3.485739E0,2.0542455E2],"tree_param":{"num_deleted":"0","num_feature":"7","num_nodes":"17","size_leaf_vector":"0"}},{"base_weights":[-2.923841E-1,-1.8701283E-2,-6.748294E-1,2.4394959E-1,-6.7279804E-1,6.0705674E-1,-6.724343E-1,4.658411E-1,6.277209E-1],"categories":[],"categories_nodes":[],"categories_segments":[],"categories_sizes":[],"default_left":[true,true,false,true,false,true,false,false,false],"id":24,"left_children":[1,3,-1,5,-1,7,-1,-1,-1],"loss_changes":[4.7757675E1,4.604361E1,0E0,6.4054276E1,0E0,1.08875275E-1,0E0,0E0,0E0],"parents":[2147483647,0,0,1,1,3,3,5,5],"right_children":[2,4,-1,6,-1,8,-1,-1,-1],"split_conditions":[5E-1,5E-1,-3.374147E-2,5E-1,-3.3639904E-2,2.45E1,-3.3621714E-2,2.3292055E-2,3.1386044E-2],"split_indices":[2,3,0,5,0,1,0,0,0],"split_type":[0,0,0,0,0,0,0,0,0],"sum_hessian":[4.553952E2,2.660531E2,1.893421E2,1.902755E2,7.5777596E1,1.365189E2,5.3756584E1,2.0432138E1,1.1608678E2],"tree_param":{"num_deleted":"0","num_feature":"7","num_nodes":"9","size_leaf_vector":"0"}},{"base_weights":[-5.976883E-1,-6.621409E-1,1.1788114E-2,-6.513177E-1,1.2376183E0],"categories":[],"categories_nodes":[],"categories_segments":[],"categories_sizes":[],"default_left":[true,false,true,false,false],"id":25,"left_children":[1,-1,3,-1,-1],"loss_changes":[1.6853668E1,0E0,3.494241E1,0E0,0E0],"parents":[2147483647,0,0,2,2],"right_children":[2,-1,4,-1,-1],"split_conditions":[1.018E3,-3.3107046E-2,5E-1,-3.2565888E-2,6.1880916E-2],"split_indices":[1,0,5,0,0],"split_type":[0,0,0,0,0],"sum_hessian":[4.2784076E2,3.8684515E2,4.0995583E1,2.6908342E1,1.408724E1],"tree_param":{"num_deleted":"0","num_feature":"7","num_nodes":"5","size_leaf_vector":"0"}},{"base_weights":[6.904938E-1,5.462575E-1,9.4696635E-1,3.8257197E-1,8.752257E-1,9.8699003E-1,4.5451307E-1,4.9429753E-1,3.110731E-1,1.0038983E0,-7.103751E-1,9.4544137E-1,-6.609972E-1,4.647709E-1,8.7338895E-1,1.24476925E-1,3.725607E-1],"categories":[],"categories_nodes":[],"categories_segments":[],"categories_sizes":[],"default_left":[true,true,true,true,true,false,true,true,true,false,false,false,false,false,false,false,false],"id":26,"left_children":[1,3,5,7,9,-1,11,13,15,-1,-1,-1,-1,-1,-1,-1,-1],"loss_changes":[1.986911E1,1.8785751E1,3.4343262E0,1.7545204E0,2.4625221E1,0E0,9.749336E0,6.185036E-1,1.6558628E0,0E0,0E0,0E0,0E0,0E0,0E0,0E0,0E0],"parents":[2147483647,0,0,1,1,2,2,3,3,4,4,6,6,7,7,8,8],"right_children":[2,4,6,8,10,-1,12,14,16,-1,-1,-1,-1,-1,-1,-1,-1],"split_conditions":[5E-1,5E-1,1.08E3,6.1499996E0,9.96E2,4.93495E-2,5E-1,3.552E3,7.25E0,5.0194915E-2,-3.5518754E-2,4.7272068E-2,-3.3049863E-2,2.3238545E-2,4.3669447E-2,6.223846E-3,1.8628037E-2],"split_indices":[4,5,1,0,1,0,5,1,0,0,0,0,0,0,0,0,0],"split_type":[0,0,0,0,0,0,0,0,0,0,0,0,0,0,0,0,0],"sum_hessian":[5.5009314E2,3.5408878E2,1.9600436E2,2.3788614E2,1.1620265E2,1.8034291E2,1.5661449E1,9.0521736E1,1.473644E2,1.0781986E2,8.38279E0,1.0981172E1,4.6802783E0,8.604582E1,4.4759126E0,3.72739E1,1.100905E2],"tree_param":{"num_deleted":"0","num_feature":"7","num_nodes":"17","size_leaf_vector":"0"}},{"base_weights":[-2.5381312E-1,2.7500024E-2,-6.670497E-1,2.8723794E-1,-6.6371346E-1,6.0306746E-1,-6.617161E-1,5.723435E-1,7.169255E-1],"categories":[],"categories_nodes":[],"categories_segments":[],"categories_sizes":[],"default_left":[true,true,false,true,false,true,false,false,false],"id":27,"left_children":[1,3,-1,5,-1,7,-1,-1,-1],"loss_changes":[5.2106094E1,4.8224953E1,0E0,5.88931E1,0E0,1.03752136E-1,0E0,0E0,0E0],"parents":[2147483647,0,0,1,1,3,3,5,5],"right_children":[2,4,-1,6,-1,8,-1,-1,-1],"split_conditions":[5E-1,5E-1,-3.3352487E-2,5E-1,-3.3185672E-2,9.95E0,-3.3085804E-2,2.8617177E-2,3.5846274E-2],"split_indices":[2,3,0,5,0,0,0,0,0],"split_type":[0,0,0,0,0,0,0,0,0],"sum_hessian":[4.4707098E2,2.665494E2,1.8052158E2,1.941703E2,7.2379105E1,1.4595744E2,4.8212856E1,1.1968734E2,2.6270113E1],"tree_param":{"num_deleted":"0","num_feature":"7","num_nodes":"9","size_leaf_vector":"0"}},{"base_weights":[-5.917381E-1,-6.536434E-1,-3.9633777E-2,-1.2543072E-1,7.4196255E-1,1.7458269E-1,-2.814411E-1,-2.4097548E-1,6.3877517E-1,4.2313612E-1,-3.3650303E-1],"categories":[],"categories_nodes":[],"categories_segments":[],"categories_sizes":[],"default_left":[true,false,true,true,false,true,true,false,false,false,false],"id":28,"left_children":[1,-1,3,5,-1,7,9,-1,-1,-1,-1],"loss_changes":[1.389888E1,0E0,2.9189749E0,1.8664875E0,0E0,2.835344E0,1.1482491E0,0E0,0E0,0E0,0E0],"parents":[2147483647,0,0,2,2,3,3,5,5,6,6],"right_children":[2,-1,4,6,-1,8,10,-1,-1,-1,-1],"split_conditions":[1.003E3,-3.2682173E-2,1.1E1,5.8500004E0,3.709813E-2,4.9E0,1.0425E3,-1.2048774E-2,3.1938758E-2,2.1156806E-2,-1.6825153E-2],"split_indices":[1,0,0,0,0,0,1,0,0,0,0],"split_type":[0,0,0,0,0,0,0,0,0,0,0],"sum_hessian":[4.0641708E2,3.6527615E2,4.114092E1,3.7828003E1,3.3129144E0,1.2900619E1,2.4927385E1,7.0606217E0,5.8399963E0,1.322306E0,2.360508E1],"tree_param":{"num_deleted":"0","num_feature":"7","num_nodes":"11","size_leaf_vector":"0"}},{"base_weights":[6.5464324E-1,4.3152258E-1,9.336012E-1,1.24612615E-1,9.124889E-1,-2.1499798E-1,9.2922497E-1,9.1828215E-1,2.637546E-1,-2.858307E-1,2.2784626E-1,2.5938496E-1,9.425818E-1],"categories":[],"categories_nodes":[],"categories_segments":[],"categories_sizes":[],"default_left":[true,true,false,true,true,true,true,false,false,false,false,false,false],"id":29,"left_children":[1,3,-1,5,7,9,11,-1,-1,-1,-1,-1,-1],"loss_changes":[3.3210907E1,4.4453377E1,0E0,5.0879433E1,1.9921875E-1,4.1815743E0,2.4969482E-1,0E0,0E0,0E0,0E0,0E0,0E0],"parents":[2147483647,0,0,1,1,3,3,4,4,5,5,6,6],"right_children":[2,4,-1,6,8,10,12,-1,-1,-1,-1,-1,-1],"split_conditions":[5E-1,5E-1,4.668006E-2,5E-1,1.525E1,1.055E1,1.8E0,4.591411E-2,1.3187731E-2,-1.4291535E-2,1.1392313E-2,1.2969248E-2,4.712909E-2],"split_indices":[2,4,0,3,0,0,0,0,0,0,0,0,0],"split_type":[0,0,0,0,0,0,0,0,0,0,0,0,0],"sum_hessian":[5.390557E2,3.009177E2,2.38138E2,1.844666E2,1.164511E2,1.3023137E2,5.4235233E1,1.1500857E2,1.4425371E0,1.1257897E2,1.76524E1,1.4595397E0,5.2775692E1],"tree_param":{"num_deleted":"0","num_feature":"7","num_nodes":"13","size_leaf_vector":"0"}},{"base_weights":[-2.4866563E-1,2.4046125E-2,-6.572406E-1,3.7417176E-1,-6.621082E-1,4.0505016E-1,1.7358916E-1,4.1646475E-1,-2.162601E-1,-2.0983024E-1,2.227455E-1],"categories":[],"categories_nodes":[],"categories_segments":[],"categories_sizes":[],"default_left":[true,true,false,true,false,true,true,false,false,false,false],"id":30,"left_children":[1,3,-1,5,-1,7,9,-1,-1,-1,-1],"loss_changes":[4.9462532E1,6.4416084E1,0E0,1.0290318E0,0E0,1.1756077E0,5.260104E-1,0E0,0E0,0E0,0E0],"parents":[2147483647,0,0,1,1,3,3,5,5,6,6],"right_children":[2,4,-1,6,-1,8,10,-1,-1,-1,-1],"split_conditions":[5E-1,5E-1,-3.2862034E-2,1.045E1,-3.310541E-2,4.108E3,1.4E1,2.0823238E-2,-1.0813005E-2,-1.0491512E-2,1.1137275E-2],"split_indices":[2,4,0,0,0,1,1,0,0,0,0],"split_type":[0,0,0,0,0,0,0,0,0,0,0],"sum_hessian":[4.4277402E2,2.6610077E2,1.7667325E2,1.7649493E2,8.960583E1,1.52066E2,2.4428936E1,1.4964642E2,2.4195735E0,2.40458E0,2.2024355E1],"tree_param":{"num_deleted":"0","num_feature":"7","num_nodes":"11","size_leaf_vector":"0"}},{"base_weights":[-5.827777E-1,-6.4604837E-1,-2.5929626E-2,-6.3864154E-1,1.1649599E0],"categories":[],"categories_nodes":[],"categories_segments":[],"categories_sizes":[],"default_left":[true,false,true,false,false],"id":31,"left_children":[1,-1,3,-1,-1],"loss_changes":[1.3919006E1,0E0,3.095159E1,0E0,0E0],"parents":[2147483647,0,0,2,2],"right_children":[2,-1,4,-1,-1],"split_conditions":[1.003E3,-3.230242E-2,5E-1,-3.193208E-2,5.8247995E-2],"split_indices":[1,0,5,0,0],"split_type":[0,0,0,0,0],"sum_hessian":[3.9454123E2,3.5414236E2,4.039886E1,2.698092E1,1.3417939E1],"tree_param":{"num_deleted":"0","num_feature":"7","num_nodes":"5","size_leaf_vector":"0"}},{"base_weights":[6.2479407E-1,4.0380472E-1,9.046486E-1,9.409013E-2,8.787984E-1,9.357586E-1,4.7403613E-1,-2.4619317E-1,8.2737005E-1,9.433547E-1,1.9286306E-1,9.2210984E-1,-6.6504633E-1,-3.2946435E-1,-1.9518086E-1,9.5833164E-1,-6.2732816E-1,8.483556E-1,-6.5333915E-1],"categories":[],"categories_nodes":[],"categories_segments":[],"categories_sizes":[],"default_left":[true,true,true,true,true,false,true,true,true,false,true,false,false,false,false,false,false,false,false],"id":32,"left_children":[1,3,5,7,9,-1,11,13,15,-1,17,-1,-1,-1,-1,-1,-1,-1,-1],"loss_changes":[3.330551E1,4.4936794E1,2.7637634E0,4.6704315E1,5.1611786E0,0E0,9.881117E0,4.796729E-1,1.18981285E1,0E0,7.008639E0,0E0,0E0,0E0,0E0,0E0,0E0,0E0,0E0],"parents":[2147483647,0,0,1,1,2,2,3,3,4,4,6,6,7,7,8,8,10,10],"right_children":[2,4,6,8,10,-1,12,14,16,-1,18,-1,-1,-1,-1,-1,-1,-1,-1],"split_conditions":[5E-1,5E-1,1.079E3,5E-1,1.2565E3,4.678793E-2,5E-1,1.115E2,9.96E2,4.7167737E-2,5E-1,4.6105493E-2,-3.3252317E-2,-1.6473217E-2,-9.759043E-3,4.7916584E-2,-3.1366408E-2,4.241778E-2,-3.266696E-2],"split_indices":[2,4,1,5,1,0,5,1,1,0,5,0,0,0,0,0,0,0,0],"split_type":[0,0,0,0,0,0,0,0,0,0,0,0,0,0,0,0,0,0,0],"sum_hessian":[5.4344E2,3.050208E2,2.3841917E2,1.8535811E2,1.19662704E2,2.2126086E2,1.7158308E1,1.27059555E2,5.8298553E1,1.09026474E2,1.06362295E1,1.2451012E1,4.707296E0,4.619443E1,8.086513E1,5.379664E1,4.5019145E0,5.9920616E0,4.644168E0],"tree_param":{"num_deleted":"0","num_feature":"7","num_nodes":"19","size_leaf_vector":"0"}},{"base_weights":[-2.6482514E-1,-1.197996E-2,-6.4885104E-1,3.036001E-1,-6.5134877E-1,6.599863E-1,-6.558582E-1,1.1253277E0,-6.71058E-1],"categories":[],"categories_nodes":[],"categories_segments":[],"categories_sizes":[],"default_left":[true,true,false,true,false,true,false,false,false],"id":33,"left_children":[1,3,-1,5,-1,7,-1,-1,-1],"loss_changes":[4.2753746E1,5.3983955E1,0E0,6.1693962E1,0E0,8.197786E1,0E0,0E0,0E0],"parents":[2147483647,0,0,1,1,3,3,5,5],"right_children":[2,4,-1,6,-1,8,-1,-1,-1],"split_conditions":[5E-1,5E-1,-3.244255E-2,5E-1,-3.2567438E-2,5E-1,-3.279291E-2,5.6266386E-2,-3.35529E-2],"split_indices":[2,4,0,5,0,3,0,0,0],"split_type":[0,0,0,0,0,0,0,0,0],"sum_hessian":[4.3939047E2,2.6556918E2,1.738213E2,1.7815866E2,8.741051E1,1.3013338E2,4.8025295E1,9.6537735E1,3.359564E1],"tree_param":{"num_deleted":"0","num_feature":"7","num_nodes":"9","size_leaf_vector":"0"}},{"base_weights":[-5.756151E-1,-6.385698E-1,-3.2963913E-2,-6.3113976E-1,1.1174558E0],"categories":[],"categories_nodes":[],"categories_segments":[],"categories_sizes":[],"default_left":[true,false,true,false,false],"id":34,"left_children":[1,-1,3,-1,-1],"loss_changes":[1.3307129E1,0E0,2.9339947E1,0E0,0E0],"parents":[2147483647,0,0,2,2],"right_children":[2,-1,4,-1,-1],"split_conditions":[1.003E3,-3.192849E-2,5E-1,-3.155699E-2,5.5872794E-2],"split_indices":[1,0,5,0,0],"split_type":[0,0,0,0,0],"sum_hessian":[3.8914178E2,3.4853088E2,4.0610897E1,2.7015314E1,1.3595583E1],"tree_param":{"num_deleted":"0","num_feature":"7","num_nodes":"5","size_leaf_vector":"0"}},{"base_weights":[6.1601096E-1,4.0893975E-1,8.7032217E-1,1.8554315E-1,8.7813103E-1,9.1788816E-1,7.6435447E-1,-6.386838E-2,7.7599627E-1,9.4505346E-1,7.06698E-1,-5.2176404E-1,-5.311825E-2,7.841707E-1,2.5484422E-1,3.3450532E-1,7.3991567E-1],"categories":[],"categories_nodes":[],"categories_segments":[],"categories_sizes":[],"default_left":[true,true,true,true,true,false,false,true,true,false,true,false,false,false,false,false,false],"id":35,"left_children":[1,3,5,7,9,-1,-1,11,13,-1,15,-1,-1,-1,-1,-1,-1],"loss_changes":[2.8396683E1,3.1579212E1,5.2908325E-1,3.0448784E1,4.4972992E-1,0E0,0E0,6.9119257E-1,6.1634064E-2,0E0,1.3965797E-1,0E0,0E0,0E0,0E0,0E0,0E0],"parents":[2147483647,0,0,1,1,2,2,3,3,4,4,7,7,8,8,10,10],"right_children":[2,4,6,8,10,-1,-1,12,14,-1,16,-1,-1,-1,-1,-1,-1],"split_conditions":[5E-1,5E-1,5E-1,5E-1,5E-1,4.589441E-2,3.8217723E-2,1.2E0,1.5549999E1,4.7252674E-2,3.5E0,-2.6088202E-2,-2.6559127E-3,3.9208535E-2,1.2742211E-2,1.6725266E-2,3.6995783E-2],"split_indices":[2,3,5,5,5,0,0,0,0,0,0,0,0,0,0,0,0],"split_type":[0,0,0,0,0,0,0,0,0,0,0,0,0,0,0,0,0],"sum_hessian":[5.449987E2,3.0183752E2,2.4316118E2,2.0542415E2,9.641338E1,1.6253967E2,8.062151E1,1.4504707E2,6.0377068E1,6.609799E1,3.0315388E1,2.2367878E0,1.4281029E2,5.8947773E1,1.4292965E0,3.3909554E0,2.6924433E1],"tree_param":{"num_deleted":"0","num_feature":"7","num_nodes":"17","size_leaf_vector":"0"}},{"base_weights":[-2.3922776E-1,9.307664E-3,-6.394053E-1,3.3072203E-1,-6.475528E-1,6.7579454E-1,-6.467557E-1,6.2512195E-1,8.2302284E-1],"categories":[],"categories_nodes":[],"categories_segments":[],"categories_sizes":[],"default_left":[true,true,false,true,false,true,false,false,false],"id":36,"left_children":[1,3,-1,5,-1,7,-1,-1,-1],"loss_changes":[4.1231953E1,5.440672E1,0E0,5.879441E1,0E0,4.431343E-1,0E0,0E0,0E0],"parents":[2147483647,0,0,1,1,3,3,5,5],"right_children":[2,4,-1,6,-1,8,-1,-1,-1],"split_conditions":[5E-1,5E-1,-3.1970266E-2,5E-1,-3.237764E-2,4.91E2,-3.2337785E-2,3.12561E-2,4.1151144E-2],"split_indices":[2,4,0,5,0,1,0,0,0],"split_type":[0,0,0,0,0,0,0,0,0],"sum_hessian":[4.1350543E2,2.5568544E2,1.5781999E2,1.720128E2,8.367264E1,1.2736028E2,4.465252E1,9.865235E1,2.8707926E1],"tree_param":{"num_deleted":"0","num_feature":"7","num_nodes":"9","size_leaf_vector":"0"}},{"base_weights":[-5.647535E-1,-6.313998E-1,4.4922087E-2,-6.2018335E-1,1.0842743E0],"categories":[],"categories_nodes":[],"categories_segments":[],"categories_sizes":[],"default_left":[true,false,true,false,false],"id":37,"left_children":[1,-1,3,-1,-1],"loss_changes":[1.5321571E1,0E0,2.69567E1,0E0,0E0],"parents":[2147483647,0,0,2,2],"right_children":[2,-1,4,-1,-1],"split_conditions":[1.003E3,-3.156999E-2,5E-1,-3.1009167E-2,5.4213714E-2],"split_indices":[1,0,5,0,0],"split_type":[0,0,0,0,0],"sum_hessian":[3.7537695E2,3.383543E2,3.702265E1,2.2821772E1,1.4200879E1],"tree_param":{"num_deleted":"0","num_feature":"7","num_nodes":"5","size_leaf_vector":"0"}},{"base_weights":[5.933827E-1,4.643211E-1,8.239713E-1,2.9052386E-1,8.3722466E-1,8.688586E-1,3.2322887E-1,3.692335E-2,7.841057E-1,8.849185E-1,2.5231224E-1,8.3388686E-1,-6.593091E-1,1.6279016E-2,7.4060476E-1,8.9341676E-1,-6.3766956E-1,7.7735025E-1,-6.026377E-1],"categories":[],"categories_nodes":[],"categories_segments":[],"categories_sizes":[],"default_left":[true,true,true,true,true,false,true,true,true,false,true,false,false,false,false,false,false,false,false],"id":38,"left_children":[1,3,5,7,9,-1,11,13,15,-1,17,-1,-1,-1,-1,-1,-1,-1,-1],"loss_changes":[1.5603195E1,2.2225357E1,4.0227966E0,2.9762787E1,2.8364563E0,0E0,9.251942E0,2.2871885E0,1.3116695E1,0E0,4.80823E0,0E0,0E0,0E0,0E0,0E0,0E0,0E0,0E0],"parents":[2147483647,0,0,1,1,2,2,3,3,4,4,6,6,7,7,8,8,10,10],"right_children":[2,4,6,8,10,-1,12,14,16,-1,18,-1,-1,-1,-1,-1,-1,-1,-1],"split_conditions":[5E-1,5E-1,1.08E3,5E-1,1.153E3,4.344293E-2,5E-1,4.192E3,9.96E2,4.4245925E-2,5E-1,4.1694343E-2,-3.2965455E-2,8.139508E-4,3.703024E-2,4.467084E-2,-3.188348E-2,3.8867515E-2,-3.0131886E-2],"split_indices":[4,3,1,5,1,0,5,1,1,0,5,0,0,0,0,0,0,0,0],"split_type":[0,0,0,0,0,0,0,0,0,0,0,0,0,0,0,0,0,0,0],"sum_hessian":[5.361546E2,3.4568604E2,1.9046855E2,2.3700528E2,1.08680756E2,1.7412462E2,1.634392E1,1.5727353E2,7.973174E1,1.0001279E2,8.667969E0,1.0854016E1,5.489904E0,1.5378499E2,3.4885502E0,7.438443E1,5.3473167E0,5.4263363E0,3.241632E0],"tree_param":{"num_deleted":"0","num_feature":"7","num_nodes":"19","size_leaf_vector":"0"}},{"base_weights":[-2.4203247E-1,1.8632194E-2,-6.3403505E-1,3.007026E-1,-6.370642E-1,6.4260167E-1,-6.525374E-1,1.0582068E0,-6.417395E-1],"categories":[],"categories_nodes":[],"categories_segments":[],"categories_sizes":[],"default_left":[true,true,false,true,false,true,false,false,false],"id":39,"left_children":[1,3,-1,5,-1,7,-1,-1,-1],"loss_changes":[4.2030186E1,4.605118E1,0E0,5.71446E1,0E0,6.932716E1,0E0,0E0,0E0],"parents":[2147483647,0,0,1,1,3,3,5,5],"right_children":[2,4,-1,6,-1,8,-1,-1,-1],"split_conditions":[5E-1,5E-1,-3.1701755E-2,5E-1,-3.185321E-2,5E-1,-3.262687E-2,5.291034E-2,-3.2086976E-2],"split_indices":[2,4,0,3,0,5,0,0,0],"split_type":[0,0,0,0,0,0,0,0,0],"sum_hessian":[4.1021417E2,2.4695338E2,1.6326079E2,1.7305096E2,7.390243E1,1.2760771E2,4.5443245E1,9.654303E1,3.1064682E1],"tree_param":{"num_deleted":"0","num_feature":"7","num_nodes":"9","size_leaf_vector":"0"}},{"base_weights":[-5.5966914E-1,-6.248151E-1,2.6424102E-2,-6.122665E-1,1.035141E0],"categories":[],"categories_nodes":[],"categories_segments":[],"categories_sizes":[],"default_left":[true,false,true,false,false],"id":40,"left_children":[1,-1,3,-1,-1],"loss_changes":[1.3896156E1,0E0,2.467966E1,0E0,0E0],"parents":[2147483647,0,0,2,2],"right_children":[2,-1,4,-1,-1],"split_conditions":[1.003E3,-3.1240756E-2,5E-1,-3.0613324E-2,5.175705E-2],"split_indices":[1,0,5,0,0],"split_type":[0,0,0,0,0],"sum_hessian":[3.6251636E2,3.26193E2,3.6323368E1,2.2481655E1,1.3841715E1],"tree_param":{"num_deleted":"0","num_feature":"7","num_nodes":"5","size_leaf_vector":"0"}},{"base_weights":[5.781424E-1,3.7589186E-1,8.28564E-1,2.1652764E-1,7.283961E-1,8.501199E-1,5.6571823E-1,3.1825295E-1,1.7303212E-1,8.6095476E-1,-6.61699E-1,8.479865E-1,-6.036998E-1,1.652169E-1,5.177232E-1,-5.085848E-1,1.8703364E-1],"categories":[],"categories_nodes":[],"categories_segments":[],"categories_sizes":[],"default_left":[true,true,true,true,true,false,true,true,true,false,false,false,false,false,false,false,false],"id":41,"left_children":[1,3,5,7,9,-1,11,13,15,-1,-1,-1,-1,-1,-1,-1,-1],"loss_changes":[2.6486694E1,1.638831E1,8.537903E-1,8.486948E-1,1.738929E1,0E0,7.392303E0,1.7456245E0,1.4815516E0,0E0,0E0,0E0,0E0,0E0,0E0,0E0,0E0],"parents":[2147483647,0,0,1,1,2,2,3,3,4,4,6,6,7,7,8,8],"right_children":[2,4,6,8,10,-1,12,14,16,-1,-1,-1,-1,-1,-1,-1,-1],"split_conditions":[5E-1,5E-1,1.079E3,5.75E0,1.192E3,4.2505994E-2,5E-1,5E-1,5.8500004E0,4.3047737E-2,-3.308495E-2,4.239933E-2,-3.018499E-2,8.260845E-3,2.5886161E-2,-2.542924E-2,9.351682E-3],"split_indices":[2,5,1,0,1,0,5,6,0,0,0,0,0,0,0,0,0],"split_type":[0,0,0,0,0,0,0,0,0,0,0,0,0,0,0,0,0],"sum_hessian":[5.2810675E2,2.935362E2,2.3457059E2,2.0325883E2,9.027735E1,2.1472664E2,1.9843954E1,5.898666E1,1.4427217E2,8.276553E1,7.5118203E0,1.6206882E1,3.6370723E0,3.4412918E1,2.4573742E1,2.192933E0,1.4207924E2],"tree_param":{"num_deleted":"0","num_feature":"7","num_nodes":"17","size_leaf_vector":"0"}},{"base_weights":[-2.3538157E-1,1.7900107E-2,-6.273197E-1,3.230322E-1,-6.324967E-1,6.186031E-1,-6.4732003E-1,6.2739444E-1,-6.7935415E-2],"categories":[],"categories_nodes":[],"categories_segments":[],"categories_sizes":[],"default_left":[true,true,false,true,false,true,false,false,false],"id":42,"left_children":[1,3,-1,5,-1,7,-1,-1,-1],"loss_changes":[4.083155E1,4.9968674E1,0E0,4.9543114E1,0E0,8.384056E-1,0E0,0E0,0E0],"parents":[2147483647,0,0,1,1,3,3,5,5],"right_children":[2,4,-1,6,-1,8,-1,-1,-1],"split_conditions":[5E-1,5E-1,-3.1365987E-2,5E-1,-3.1624835E-2,5.431E3,-3.2366004E-2,3.1369723E-2,-3.3967707E-3],"split_indices":[2,4,0,3,0,1,0,0,0],"split_type":[0,0,0,0,0,0,0,0,0],"sum_hessian":[4.102019E2,2.4975645E2,1.6044547E2,1.7034352E2,7.9412926E1,1.3084915E2,3.9494377E1,1.2927983E2,1.5693189E0],"tree_param":{"num_deleted":"0","num_feature":"7","num_nodes":"9","size_leaf_vector":"0"}},{"base_weights":[-5.5175006E-1,-6.184371E-1,2.1096846E-2,-6.064684E-1,9.9042976E-1],"categories":[],"categories_nodes":[],"categories_segments":[],"categories_sizes":[],"default_left":[true,false,true,false,false],"id":43,"left_children":[1,-1,3,-1,-1],"loss_changes":[1.3687317E1,0E0,2.3894556E1,0E0,0E0],"parents":[2147483647,0,0,2,2],"right_children":[2,-1,4,-1,-1],"split_conditions":[1.003E3,-3.0921856E-2,5E-1,-3.032342E-2,4.9521487E-2],"split_indices":[1,0,5,0,0],"split_type":[0,0,0,0,0],"sum_hessian":[3.569513E2,3.196591E2,3.729219E1,2.2863958E1,1.4428232E1],"tree_param":{"num_deleted":"0","num_feature":"7","num_nodes":"5","size_leaf_vector":"0"}},{"base_weights":[5.39829E-1,3.9902312E-1,7.810792E-1,2.1018301E-1,7.98566E-1,8.226183E-1,3.3922082E-1,-2.391433E-2,7.2010016E-1,8.4449273E-1,1.409758E-1,7.930009E-1,-6.2656E-1,2.400293E-2,-1.01734444E-1,8.3697414E-1,-6.198165E-1,7.132103E-1,-5.727771E-1],"categories":[],"categories_nodes":[],"categories_segments":[],"categories_sizes":[],"default_left":[true,true,true,true,true,false,true,true,true,false,true,false,false,false,false,false,false,false,false],"id":44,"left_children":[1,3,5,7,9,-1,11,13,15,-1,17,-1,-1,-1,-1,-1,-1,-1,-1],"loss_changes":[1.7177383E1,2.4515171E1,3.1844482E0,2.6697186E1,3.041153E0,0E0,8.349082E0,5.77255E-1,1.1536663E1,0E0,3.6888113E0,0E0,0E0,0E0,0E0,0E0,0E0,0E0,0E0],"parents":[2147483647,0,0,1,1,2,2,3,3,4,4,6,6,7,7,8,8,10,10],"right_children":[2,4,6,8,10,-1,12,14,16,-1,18,-1,-1,-1,-1,-1,-1,-1,-1],"split_conditions":[5E-1,5E-1,1.079E3,5E-1,1.153E3,4.1130915E-2,5E-1,1.85E2,9.96E2,4.222464E-2,5E-1,3.9650045E-2,-3.1328E-2,1.2001465E-3,-5.0867223E-3,4.1848708E-2,-3.0990824E-2,3.5660516E-2,-2.8638855E-2],"split_indices":[4,3,1,5,1,0,5,1,1,0,5,0,0,0,0,0,0,0,0],"split_type":[0,0,0,0,0,0,0,0,0,0,0,0,0,0,0,0,0,0,0],"sum_hessian":[5.138462E2,3.2614526E2,1.8770096E2,2.22506E2,1.0363926E2,1.7078383E2,1.691713E1,1.5314973E2,6.9356255E1,9.660785E1,7.0314097E0,1.1631076E1,5.2860546E0,9.521391E1,5.7935825E1,6.4137245E1,5.219007E0,3.903018E0,3.1283917E0],"tree_param":{"num_deleted":"0","num_feature":"7","num_nodes":"19","size_leaf_vector":"0"}},{"base_weights":[-2.2790594E-1,2.350724E-2,-6.212137E-1,3.1639463E-1,-6.2467957E-1,6.093415E-1,-6.370506E-1,6.37281E-1,4.1528958E-1],"categories":[],"categories_nodes":[],"categories_segments":[],"categories_sizes":[],"default_left":[true,true,false,true,false,true,false,false,false],"id":45,"left_children":[1,3,-1,5,-1,7,-1,-1,-1],"loss_changes":[3.8431847E1,4.5375885E1,0E0,4.635501E1,0E0,4.2066956E-1,0E0,0E0,0E0],"parents":[2147483647,0,0,1,1,3,3,5,5],"right_children":[2,4,-1,6,-1,8,-1,-1,-1],"split_conditions":[5E-1,5E-1,-3.1060684E-2,5E-1,-3.123398E-2,1.045E1,-3.1852532E-2,3.186405E-2,2.076448E-2],"split_indices":[2,4,0,3,0,0,0,0,0],"split_type":[0,0,0,0,0,0,0,0,0],"sum_hessian":[3.8751312E2,2.3697339E2,1.5053973E2,1.6357352E2,7.339987E1,1.2540395E2,3.8169563E1,1.07624176E2,1.777978E1],"tree_param":{"num_deleted":"0","num_feature":"7","num_nodes":"9","size_leaf_vector":"0"}},{"base_weights":[-5.5303967E-1,-6.1385554E-1,-4.1690928E-1,-4.2178705E-1,2.888248E-2,-3.64814E-1,-4.7753438E-1,-5.213977E-1,-2.429856E-1,-5.5834496E-1,-3.8101593E-1],"categories":[],"categories_nodes":[],"categories_segments":[],"categories_sizes":[],"default_left":[true,false,true,true,false,true,true,false,false,false,false],"id":46,"left_children":[1,-1,3,5,-1,7,9,-1,-1,-1,-1],"loss_changes":[2.622963E0,0E0,2.5245285E-1,1.7314148E-1,0E0,9.8591805E-1,1.9316196E-1,0E0,0E0,0E0,0E0],"parents":[2147483647,0,0,2,2,3,3,5,5,6,6],"right_children":[2,-1,4,6,-1,8,10,-1,-1,-1,-1],"split_conditions":[5E-1,-3.0692777E-2,1.63E1,7.1499996E0,1.444124E-3,4.95E0,9.65E0,-2.6069885E-2,-1.2149281E-2,-2.791725E-2,-1.9050797E-2],"split_indices":[5,0,0,0,0,0,0,0,0,0,0],"split_type":[0,0,0,0,0,0,0,0,0,0,0],"sum_hessian":[3.467379E2,2.3724155E2,1.0949636E2,1.083645E2,1.1318594E0,5.7324104E1,5.1040398E1,2.3648882E1,3.367522E1,2.5176437E1,2.5863958E1],"tree_param":{"num_deleted":"0","num_feature":"7","num_nodes":"11","size_leaf_vector":"0"}},{"base_weights":[5.415547E-1,3.6315802E-1,7.770575E-1,1.6371259E-1,7.8522396E-1,8.0754966E-1,4.123221E-1,-6.8671286E-2,7.07153E-1,8.266855E-1,2.2683775E-1,7.9872024E-1,-6.170053E-1,-5.5079944E-2,-4.3580693E-1,8.32372E-1,-5.91554E-1,7.04541E-1,-5.4007316E-1],"categories":[],"categories_nodes":[],"categories_segments":[],"categories_sizes":[],"default_left":[true,true,true,true,true,false,true,true,true,false,true,false,false,false,false,false,false,false,false],"id":47,"left_children":[1,3,5,7,9,-1,11,13,15,-1,17,-1,-1,-1,-1,-1,-1,-1,-1],"loss_changes":[2.1663895E1,2.504906E1,2.161255E0,2.5858814E1,2.0284843E0,0E0,8.187229E0,6.948951E-1,1.0462185E1,0E0,3.3092124E0,0E0,0E0,0E0,0E0,0E0,0E0,0E0,0E0],"parents":[2147483647,0,0,1,1,2,2,3,3,4,4,6,6,7,7,8,8,10,10],"right_children":[2,4,6,8,10,-1,12,14,16,-1,18,-1,-1,-1,-1,-1,-1,-1,-1],"split_conditions":[5E-1,5E-1,1.079E3,5E-1,1.4355E3,4.0377483E-2,5E-1,1.235E1,9.96E2,4.1334275E-2,5E-1,3.9936014E-2,-3.0850265E-2,-2.7539972E-3,-2.1790346E-2,4.16186E-2,-2.95777E-2,3.5227053E-2,-2.7003659E-2],"split_indices":[2,3,1,5,1,0,5,0,1,0,5,0,0,0,0,0,0,0,0],"split_type":[0,0,0,0,0,0,0,0,0,0,0,0,0,0,0,0,0,0,0],"sum_hessian":[5.213652E2,2.9809564E2,2.232695E2,2.033781E2,9.471756E1,2.0492369E2,1.8345816E1,1.4307188E2,6.030621E1,8.77234E1,6.994164E0,1.3501528E1,4.8442874E0,1.3907343E2,3.9984636E0,5.5330425E1,4.9757853E0,4.3598013E0,2.6343627E0],"tree_param":{"num_deleted":"0","num_feature":"7","num_nodes":"19","size_leaf_vector":"0"}},{"base_weights":[-2.255835E-1,1.0723461E-2,-6.1504996E-1,2.875545E-1,-6.213254E-1,5.762158E-1,-6.290384E-1,6.0297877E-1,3.727287E-1],"categories":[],"categories_nodes":[],"categories_segments":[],"categories_sizes":[],"default_left":[true,true,false,true,false,true,false,false,false],"id":48,"left_children":[1,3,-1,5,-1,7,-1,-1,-1],"loss_changes":[3.596337E1,4.289603E1,0E0,4.546422E1,0E0,4.8408127E-1,0E0,0E0,0E0],"parents":[2147483647,0,0,1,1,3,3,5,5],"right_children":[2,4,-1,6,-1,8,-1,-1,-1],"split_conditions":[5E-1,5E-1,-3.0752499E-2,5E-1,-3.1066269E-2,1.055E1,-3.1451922E-2,3.0148938E-2,1.8636435E-2],"split_indices":[2,4,0,3,0,0,0,0,0],"split_type":[0,0,0,0,0,0,0,0,0],"sum_hessian":[3.8969168E2,2.4314006E2,1.4655162E2,1.6946231E2,7.367775E1,1.2915808E2,4.0304226E1,1.1241046E2,1.6747623E1],"tree_param":{"num_deleted":"0","num_feature":"7","num_nodes":"9","size_leaf_vector":"0"}},{"base_weights":[-5.3320664E-1,-6.0744214E-1,6.0361598E-2,-2.001343E-2,5.457072E-1,-9.159328E-2,5.6012195E-1,6.629815E-1,5.2291602E-2,3.841708E-2,-4.462233E-1],"categories":[],"categories_nodes":[],"categories_segments":[],"categories_sizes":[],"default_left":[true,false,true,true,true,true,false,false,false,false,false],"id":49,"left_children":[1,-1,3,5,7,9,-1,-1,-1,-1,-1],"loss_changes":[1.4774895E1,0E0,1.496839E0,1.4483972E0,2.80532E-1,1.437567E0,0E0,0E0,0E0,0E0,0E0],"parents":[2147483647,0,0,2,2,3,3,4,4,5,5],"right_children":[2,-1,4,6,8,10,-1,-1,-1,-1,-1],"split_conditions":[1.003E3,-3.0372107E-2,5.373E3,1.1E1,6.7785E3,3.9865E3,2.8006097E-2,3.3149075E-2,2.61458E-3,1.920854E-3,-2.2311164E-2],"split_indices":[1,0,1,0,1,1,0,0,0,0,0],"split_type":[0,0,0,0,0,0,0,0,0,0,0],"sum_hessian":[3.3347458E2,2.9638358E2,3.7091003E1,3.264383E1,4.447174E0,2.9808086E1,2.8357453E0,3.3154953E0,1.131679E0,2.2464191E1,7.343893E0],"tree_param":{"num_deleted":"0","num_feature":"7","num_nodes":"11","size_leaf_vector":"0"}},{"base_weights":[5.25048E-1,3.4221914E-1,7.595859E-1,6.2744536E-2,7.7370286E-1,7.86497E-1,4.3497264E-1,-2.4819867E-1,7.746875E-1,7.90229E-1,-3.989697E-2,-1.14721954E-1,4.8257893E-1,-3.0230397E-1,4.9553905E-2,8.116909E-1,-1.9471078E-1,8.059816E-1,4.6235704E-1,-2.2357259E-2,5.5655575E-1],"categories":[],"categories_nodes":[],"categories_segments":[],"categories_sizes":[],"default_left":[true,true,true,true,true,false,true,true,true,true,false,false,true,false,false,false,false,false,false,false,false],"id":50,"left_children":[1,3,5,7,9,-1,11,13,15,17,-1,-1,19,-1,-1,-1,-1,-1,-1,-1,-1],"loss_changes":[2.2076263E1,3.5469204E1,1.644043E0,4.0004936E1,1.5870972E0,0E0,5.6940055E-1,2.043727E0,2.127819E0,2.1323395E-1,0E0,0E0,6.948762E-1,0E0,0E0,0E0,0E0,0E0,0E0,0E0,0E0],"parents":[2147483647,0,0,1,1,2,2,3,3,4,4,6,6,7,7,8,8,9,9,12,12],"right_children":[2,4,6,8,10,-1,12,14,16,18,-1,-1,20,-1,-1,-1,-1,-1,-1,-1,-1],"split_conditions":[5E-1,5E-1,1.079E3,5E-1,4.09E3,3.932485E-2,3.75E0,1.055E1,3.841E3,1.2565E3,-1.9948485E-3,-5.7360977E-3,1.98E3,-1.5115199E-2,2.4776952E-3,4.0584546E-2,-9.735539E-3,4.029908E-2,2.3117853E-2,-1.117863E-3,2.7827788E-2],"split_indices":[2,4,1,3,1,0,0,0,1,1,0,0,1,0,0,0,0,0,0,0,0],"split_type":[0,0,0,0,0,0,0,0,0,0,0,0,0,0,0,0,0,0,0,0,0],"sum_hessian":[5.1989685E2,2.9353622E2,2.2636063E2,1.7884357E2,1.1469264E2,2.0771754E2,1.864308E1,1.2493097E2,5.3912594E1,1.1243749E2,2.255154E0,1.3735325E0,1.7269547E1,1.0570737E2,1.9223608E1,5.208704E1,1.8255571E0,1.0589172E2,6.5457635E0,2.2959678E0,1.4973578E1],"tree_param":{"num_deleted":"0","num_feature":"7","num_nodes":"21","size_leaf_vector":"0"}},{"base_weights":[-1.9994842E-1,3.2990318E-2,-6.0828143E-1,3.1043807E-1,-6.14277E-1,5.8525825E-1,-6.2137514E-1,5.939541E-1,-8.542195E-2],"categories":[],"categories_nodes":[],"categories_segments":[],"categories_sizes":[],"default_left":[true,true,false,true,false,true,false,false,false],"id":51,"left_children":[1,3,-1,5,-1,7,-1,-1,-1],"loss_changes":[3.6883766E1,4.4679016E1,0E0,4.4939037E1,0E0,8.377037E-1,0E0,0E0,0E0],"parents":[2147483647,0,0,1,1,3,3,5,5],"right_children":[2,4,-1,6,-1,8,-1,-1,-1],"split_conditions":[5E-1,5E-1,-3.0414073E-2,5E-1,-3.071385E-2,5.431E3,-3.1068757E-2,2.9697705E-2,-4.2710975E-3],"split_indices":[2,4,0,3,0,1,0,0,0],"split_type":[0,0,0,0,0,0,0,0,0],"sum_hessian":[3.8656332E2,2.4673146E2,1.3983186E2,1.730674E2,7.3664055E1,1.3393715E2,3.9130245E1,1.3233574E2,1.6014198E0],"tree_param":{"num_deleted":"0","num_feature":"7","num_nodes":"9","size_leaf_vector":"0"}},{"base_weights":[-5.402831E-1,-6.019098E-1,1.6548868E-2,-5.48541E-2,4.2438218E-1,1.2758517E-1,-3.01545E-1,6.681989E-1,-8.280031E-2,3.5795193E-2,4.651996E-1,8.446438E-2,-3.462768E-1],"categories":[],"categories_nodes":[],"categories_segments":[],"categories_sizes":[],"default_left":[true,false,true,true,true,true,true,false,false,false,false,false,false],"id":52,"left_children":[1,-1,3,5,7,9,11,-1,-1,-1,-1,-1,-1],"loss_changes":[1.0969704E1,0E0,9.7837466E-1,1.3345085E0,6.7376673E-1,5.1813424E-1,2.4577391E-1,0E0,0E0,0E0,0E0,0E0,0E0],"parents":[2147483647,0,0,2,2,3,3,4,4,5,5,6,6],"right_children":[2,-1,4,6,8,10,12,-1,-1,-1,-1,-1,-1],"split_conditions":[1.003E3,-3.0095492E-2,1.1049999E1,7.1499996E0,1.205E1,1.5E0,1.3345E3,3.3409946E-2,-4.140015E-3,1.7897597E-3,2.325998E-2,4.223219E-3,-1.731384E-2],"split_indices":[1,0,0,0,0,3,1,0,0,0,0,0,0],"split_type":[0,0,0,0,0,0,0,0,0,0,0,0,0],"sum_hessian":[3.1837952E2,2.8658148E2,3.1798035E1,2.7796888E1,4.0011473E0,1.6256945E1,1.1539945E1,2.4877462E0,1.513401E0,1.365144E1,2.6055045E0,1.1061624E0,1.0433783E1],"tree_param":{"num_deleted":"0","num_feature":"7","num_nodes":"13","size_leaf_vector":"0"}},{"base_weights":[4.9111328E-1,3.6696374E-1,7.202744E-1,1.979563E-1,7.334424E-1,7.6599985E-1,2.7247554E-1,2.2889633E-1,-1.5274167E-1,7.756568E-1,2.2322054E-1,-1.1538496E-1,4.2908412E-1,5.645941E-1,2.080039E-1,1.1186845E-1,-3.5961235E-1,3.4009796E-1,-1.7195278E-1,4.9032894E-1,-4.1663238E-1,5.8442634E-1,-1.3214986E-1],"categories":[],"categories_nodes":[],"categories_segments":[],"categories_sizes":[],"default_left":[true,true,true,true,true,false,true,true,true,false,true,true,true,false,false,false,false,false,false,false,false,false,false],"id":53,"left_children":[1,3,5,7,9,-1,11,13,15,-1,17,19,21,-1,-1,-1,-1,-1,-1,-1,-1,-1,-1],"loss_changes":[1.4074394E1,2.0228176E1,3.3962326E0,2.4924822E0,2.054966E0,0E0,1.1346157E0,1.3450651E0,1.0781802E0,0E0,4.8843133E-1,1.2856802E0,1.2051814E0,0E0,0E0,0E0,0E0,0E0,0E0,0E0,0E0,0E0,0E0],"parents":[2147483647,0,0,1,1,2,2,3,3,4,4,6,6,7,7,8,8,10,10,11,11,12,12],"right_children":[2,4,6,8,10,-1,12,14,16,-1,18,20,22,-1,-1,-1,-1,-1,-1,-1,-1,-1,-1],"split_conditions":[5E-1,5E-1,1.08E3,1.544E3,1.153E3,3.8299993E-2,6.1000004E0,2.6E0,6.6E0,3.8782842E-2,9.65E0,4.9E0,1.0299999E1,2.8229704E-2,1.0400195E-2,5.5934223E-3,-1.7980618E-2,1.7004898E-2,-8.597639E-3,2.4516447E-2,-2.083162E-2,2.9221317E-2,-6.607493E-3],"split_indices":[4,3,1,1,1,0,0,0,0,0,0,0,0,0,0,0,0,0,0,0,0,0,0],"split_type":[0,0,0,0,0,0,0,0,0,0,0,0,0,0,0,0,0,0,0,0,0,0,0],"sum_hessian":[5.0299234E2,3.2793356E2,1.7505879E2,2.2548688E2,1.02446686E2,1.581947E2,1.6864098E1,2.0752542E2,1.7961447E1,9.413774E1,8.308941E0,4.926425E0,1.1937673E1,1.063409E1,1.9689134E2,8.082405E0,9.879042E0,6.5199537E0,1.7889872E0,1.4278352E0,3.4985895E0,9.31741E0,2.6202617E0],"tree_param":{"num_deleted":"0","num_feature":"7","num_nodes":"23","size_leaf_vector":"0"}},{"base_weights":[-2.0415324E-1,-3.962374E-2,-6.007544E-1,1.8438013E-1,-6.179579E-1,4.1968322E-1,-6.103157E-1,2.436043E-1,4.8818648E-1],"categories":[],"categories_nodes":[],"categories_segments":[],"categories_sizes":[],"default_left":[true,true,false,true,false,true,false,false,false],"id":54,"left_children":[1,3,-1,5,-1,7,-1,-1,-1],"loss_changes":[2.4684818E1,3.4924343E1,0E0,3.6618183E1,0E0,1.6979046E0,0E0,0E0,0E0],"parents":[2147483647,0,0,1,1,3,3,5,5],"right_children":[2,4,-1,6,-1,8,-1,-1,-1],"split_conditions":[5E-1,5E-1,-3.003772E-2,5E-1,-3.0897895E-2,5.45E0,-3.0515784E-2,1.2180216E-2,2.4409324E-2],"split_indices":[4,5,0,3,0,0,0,0,0],"split_type":[0,0,0,0,0,0,0,0,0],"sum_hessian":[3.7766122E2,2.677043E2,1.099569E2,1.9345526E2,7.424907E1,1.4962453E2,4.3830734E1,4.318333E1,1.064412E2],"tree_param":{"num_deleted":"0","num_feature":"7","num_nodes":"9","size_leaf_vector":"0"}},{"base_weights":[-5.2865833E-1,-5.971039E-1,2.5260953E-2,-5.921152E-1,9.383996E-1],"categories":[],"categories_nodes":[],"categories_segments":[],"categories_sizes":[],"default_left":[true,false,true,false,false],"id":55,"left_children":[1,-1,3,-1,-1],"loss_changes":[1.212973E1,0E0,2.0907482E1,0E0,0E0],"parents":[2147483647,0,0,2,2],"right_children":[2,-1,4,-1,-1],"split_conditions":[1.003E3,-2.9855195E-2,5E-1,-2.9605761E-2,4.6919983E-2],"split_indices":[1,0,5,0,0],"split_type":[0,0,0,0,0],"sum_hessian":[3.1853537E2,2.8343454E2,3.5100822E1,2.1151669E1,1.3949155E1],"tree_param":{"num_deleted":"0","num_feature":"7","num_nodes":"5","size_leaf_vector":"0"}},{"base_weights":[4.9243632E-1,3.110155E-1,7.2682256E-1,1.2075977E-1,7.309566E-1,7.5265336E-1,4.4847208E-1,-1.1753538E-1,6.783742E-1,7.6414174E-1,2.6457116E-1,7.621257E-1,-6.103831E-1,-8.570672E-2,-2.1214329E-1,8.127247E-1,-5.930061E-1,6.824724E-1,-5.1142645E-1],"categories":[],"categories_nodes":[],"categories_segments":[],"categories_sizes":[],"default_left":[true,true,true,true,true,false,true,true,true,false,true,false,false,false,false,false,false,false,false],"id":56,"left_children":[1,3,5,7,9,-1,11,13,15,-1,17,-1,-1,-1,-1,-1,-1,-1,-1],"loss_changes":[2.1438507E1,2.2996845E1,1.2553711E0,2.666139E1,1.1890907E0,0E0,7.535143E0,4.0642E-1,1.0737728E1,0E0,2.78149E0,0E0,0E0,0E0,0E0,0E0,0E0,0E0,0E0],"parents":[2147483647,0,0,1,1,2,2,3,3,4,4,6,6,7,7,8,8,10,10],"right_children":[2,4,6,8,10,-1,12,14,16,-1,18,-1,-1,-1,-1,-1,-1,-1,-1],"split_conditions":[5E-1,5E-1,1.2675E3,5E-1,2.2925E3,3.763267E-2,5E-1,3.425E2,1.004E3,3.8207088E-2,5E-1,3.8106285E-2,-3.0519156E-2,-4.285336E-3,-1.0607164E-2,4.0636238E-2,-2.9650304E-2,3.4123622E-2,-2.5571322E-2],"split_indices":[2,3,1,5,1,0,5,1,1,0,5,0,0,0,0,0,0,0,0],"split_type":[0,0,0,0,0,0,0,0,0,0,0,0,0,0,0,0,0,0,0],"sum_hessian":[5.0848386E2,2.8793887E2,2.2054498E2,1.9904736E2,8.889151E1,2.0025723E2,2.028775E1,1.4000555E2,5.9041813E1,8.2390656E1,6.500856E0,1.5867671E1,4.4200783E0,1.0618722E2,3.381834E1,5.372526E1,5.3165536E0,4.303693E0,2.1971633E0],"tree_param":{"num_deleted":"0","num_feature":"7","num_nodes":"19","size_leaf_vector":"0"}},{"base_weights":[-1.9093868E-1,-1.9713303E-2,-5.9739864E-1,1.8332408E-1,-6.077651E-1,4.1846785E-1,-6.045112E-1,4.2723465E-1,-3.4728542E-1],"categories":[],"categories_nodes":[],"categories_segments":[],"categories_sizes":[],"default_left":[true,true,false,true,false,true,false,false,false],"id":57,"left_children":[1,3,-1,5,-1,7,-1,-1,-1],"loss_changes":[2.5785337E1,3.1373785E1,0E0,3.6452267E1,0E0,1.1625919E0,0E0,0E0,0E0],"parents":[2147483647,0,0,1,1,3,3,5,5],"right_children":[2,4,-1,6,-1,8,-1,-1,-1],"split_conditions":[5E-1,5E-1,-2.9869933E-2,5E-1,-3.0388255E-2,5.419E3,-3.022556E-2,2.1361733E-2,-1.7364271E-2],"split_indices":[4,5,0,3,0,1,0,0,0],"split_type":[0,0,0,0,0,0,0,0,0],"sum_hessian":[3.696681E2,2.6083655E2,1.0883154E2,1.9440302E2,6.6433525E1,1.5007826E2,4.432475E1,1.488166E2,1.2616677E0],"tree_param":{"num_deleted":"0","num_feature":"7","num_nodes":"9","size_leaf_vector":"0"}},{"base_weights":[-5.244702E-1,-5.922747E-1,1.2091816E-2,-5.7018682E-2,4.7826022E-1,9.198871E-2,-2.6000956E-1,6.3360095E-1,4.1251914E-3,-1.9366597E-1,2.4492612E-1,2.3165634E-1,-4.0472212E-1],"categories":[],"categories_nodes":[],"categories_segments":[],"categories_sizes":[],"default_left":[true,false,true,true,true,true,true,false,false,false,false,false,false],"id":58,"left_children":[1,-1,3,5,7,9,11,-1,-1,-1,-1,-1,-1],"loss_changes":[1.0987541E1,0E0,1.149739E0,9.6871483E-1,3.3654523E-1,8.666507E-1,1.0531514E0,0E0,0E0,0E0,0E0,0E0,0E0],"parents":[2147483647,0,0,2,2,3,3,4,4,5,5,6,6],"right_children":[2,-1,4,6,8,10,12,-1,-1,-1,-1,-1,-1],"split_conditions":[9.935E2,-2.9613737E-2,1.1E1,7.1499996E0,1.205E1,5.05E0,1.4855E3,3.1680048E-2,2.0625957E-4,-9.683299E-3,1.2246306E-2,1.1582817E-2,-2.0236107E-2],"split_indices":[1,0,0,0,0,0,1,0,0,0,0,0,0],"split_type":[0,0,0,0,0,0,0,0,0,0,0,0,0],"sum_hessian":[3.008134E2,2.669726E2,3.384076E1,3.0235907E1,3.6048539E0,1.7751835E1,1.2484072E1,2.461924E0,1.1429297E0,6.0972166E0,1.1654618E1,2.702257E0,9.781815E0],"tree_param":{"num_deleted":"0","num_feature":"7","num_nodes":"13","size_leaf_vector":"0"}},{"base_weights":[4.7708198E-1,2.9834267E-1,7.11213E-1,6.56665E-2,7.0296043E-1,7.393872E-1,3.8208446E-1,-2.204099E-1,7.282821E-1,7.542575E-1,2.0030081E-1,-7.871378E-2,4.2152643E-1,-2.810329E-1,1.2499045E-1,7.5065565E-1,-8.948265E-2,3.108398E-1,-3.7750456E-1,4.526016E-1,1.4693747E-1],"categories":[],"categories_nodes":[],"categories_segments":[],"categories_sizes":[],"default_left":[true,true,true,true,true,false,true,true,true,false,true,false,true,false,false,false,false,false,false,false,false],"id":59,"left_children":[1,3,5,7,9,-1,11,13,15,-1,17,-1,19,-1,-1,-1,-1,-1,-1,-1,-1],"loss_changes":[2.0491226E1,2.6528233E1,1.6968307E0,3.434116E1,2.5035934E0,0E0,3.766954E-1,2.6883402E0,1.0662727E0,0E0,8.1322455E-1,0E0,8.339977E-2,0E0,0E0,0E0,0E0,0E0,0E0,0E0,0E0],"parents":[2147483647,0,0,1,1,2,2,3,3,4,4,6,6,7,7,8,8,10,10,12,12],"right_children":[2,4,6,8,10,-1,12,14,16,-1,18,-1,20,-1,-1,-1,-1,-1,-1,-1,-1],"split_conditions":[5E-1,5E-1,1.079E3,5E-1,1.2565E3,3.696936E-2,1.309E3,1.055E1,4.0915E3,3.7712876E-2,1.1049999E1,-3.935689E-3,5.621E3,-1.4051645E-2,6.2495223E-3,3.7532784E-2,-4.474133E-3,1.554199E-2,-1.8875228E-2,2.263008E-2,7.3468736E-3],"split_indices":[2,4,1,3,1,0,1,0,1,0,0,0,1,0,0,0,0,0,0,0,0],"split_type":[0,0,0,0,0,0,0,0,0,0,0,0,0,0,0,0,0,0,0,0,0],"sum_hessian":[4.9372375E2,2.8127118E2,2.1245258E2,1.7931694E2,1.0195423E2,1.9455194E2,1.7900642E1,1.2571035E2,5.3606583E1,9.205897E1,9.895268E0,1.3328898E0,1.6567753E1,1.0709918E2,1.8611172E1,5.2258873E1,1.3477113E0,8.6940565E0,1.2012119E0,1.4301022E1,2.2667315E0],"tree_param":{"num_deleted":"0","num_feature":"7","num_nodes":"21","size_leaf_vector":"0"}},{"base_weights":[-2.0815738E-1,-6.493769E-2,-6.006945E-1,1.047809E-1,-5.932451E-1,-3.3598483E-2,1.641007E-1,5.1294435E-2,-1.9084962E-1,5.708935E-1,1.5198205E-1],"categories":[],"categories_nodes":[],"categories_segments":[],"categories_sizes":[],"default_left":[true,true,false,true,false,true,true,false,false,false,false],"id":60,"left_children":[1,3,-1,5,-1,7,9,-1,-1,-1,-1],"loss_changes":[2.0217464E1,2.3833307E1,0E0,1.6595912E0,0E0,8.280028E-1,6.0938334E-1,0E0,0E0,0E0,0E0],"parents":[2147483647,0,0,1,1,3,3,5,5,6,6],"right_children":[2,4,-1,6,-1,8,10,-1,-1,-1,-1],"split_conditions":[5E-1,5E-1,-3.0034725E-2,5.75E0,-2.9662255E-2,5E-1,5.8500004E0,2.5647217E-3,-9.542481E-3,2.8544677E-2,7.599103E-3],"split_indices":[5,3,0,0,0,6,0,0,0,0,0],"split_type":[0,0,0,0,0,0,0,0,0,0,0],"sum_hessian":[3.5931342E2,2.6411484E2,9.519858E1,2.005045E2,6.361034E1,6.0291653E1,1.4021284E2,3.9591667E1,2.0699982E1,2.7223346E0,1.3749051E2],"tree_param":{"num_deleted":"0","num_feature":"7","num_nodes":"11","size_leaf_vector":"0"}},{"base_weights":[-5.131068E-1,-5.8780193E-1,4.2008094E-2,-5.845616E-1,9.0163827E-1],"categories":[],"categories_nodes":[],"categories_segments":[],"categories_sizes":[],"default_left":[true,false,true,false,false],"id":61,"left_children":[1,-1,3,-1,-1],"loss_changes":[1.25600815E1,0E0,2.0341717E1,0E0,0E0],"parents":[2147483647,0,0,2,2],"right_children":[2,-1,4,-1,-1],"split_conditions":[1.0215E3,-2.9390097E-2,5E-1,-2.922808E-2,4.5081913E-2],"split_indices":[1,0,5,0,0],"split_type":[0,0,0,0,0],"sum_hessian":[3.013171E2,2.6552917E2,3.5787937E1,2.0885118E1,1.4902819E1],"tree_param":{"num_deleted":"0","num_feature":"7","num_nodes":"5","size_leaf_vector":"0"}},{"base_weights":[4.656011E-1,2.8929597E-1,7.0163494E-1,1.2111099E-1,6.852865E-1,7.4498487E-1,5.9677136E-1,-1.0708259E-1,6.8804777E-1,7.415442E-1,5.358745E-1,-9.171224E-2,-4.085875E-1,3.441969E-2,7.0567316E-1,6.180729E-1,3.5244194E-1],"categories":[],"categories_nodes":[],"categories_segments":[],"categories_sizes":[],"default_left":[true,true,true,true,true,false,false,true,true,false,true,false,false,false,false,false,false],"id":62,"left_children":[1,3,5,7,9,-1,-1,11,13,-1,15,-1,-1,-1,-1,-1,-1],"loss_changes":[2.0257568E1,1.877466E1,5.0788116E-1,2.5942139E1,3.1032944E-1,0E0,0E0,6.2724173E-1,6.38361E-1,0E0,1.8377161E-1,0E0,0E0,0E0,0E0,0E0,0E0],"parents":[2147483647,0,0,1,1,2,2,3,3,4,4,7,7,8,8,10,10],"right_children":[2,4,6,8,10,-1,-1,12,14,-1,16,-1,-1,-1,-1,-1,-1],"split_conditions":[5E-1,5E-1,5E-1,5E-1,5E-1,3.7249245E-2,2.9838568E-2,1.205E1,1.8E0,3.707721E-2,1.5E0,-4.585612E-3,-2.0429375E-2,1.7209845E-3,3.528366E-2,3.0903647E-2,1.7622096E-2],"split_indices":[2,3,5,5,5,0,0,0,0,0,3,0,0,0,0,0,0],"split_type":[0,0,0,0,0,0,0,0,0,0,0,0,0,0,0,0,0],"sum_hessian":[4.9067484E2,2.821494E2,2.085254E2,1.9895512E2,8.3194305E1,1.4321638E2,6.530903E1,1.4243555E2,5.651957E1,5.7558804E1,2.5635502E1,1.3676749E2,5.668058E0,1.5615908E0,5.4957977E1,1.6066442E1,9.56906E0],"tree_param":{"num_deleted":"0","num_feature":"7","num_nodes":"17","size_leaf_vector":"0"}},{"base_weights":[-1.9293533E-1,4.1794326E-2,-5.949646E-1,2.5086933E-1,-6.0725117E-1,4.7985345E-1,-5.9375614E-1,4.333877E-1,5.4650456E-1],"categories":[],"categories_nodes":[],"categories_segments":[],"categories_sizes":[],"default_left":[true,true,false,true,false,true,false,false,false],"id":63,"left_children":[1,3,-1,5,-1,7,-1,-1,-1],"loss_changes":[3.4342743E1,3.1436062E1,0E0,3.4145664E1,0E0,1.9142914E-1,0E0,0E0,0E0],"parents":[2147483647,0,0,1,1,3,3,5,5],"right_children":[2,4,-1,6,-1,8,-1,-1,-1],"split_conditions":[5E-1,5E-1,-2.9748231E-2,5E-1,-3.036256E-2,1.855E2,-2.9687807E-2,2.1669386E-2,2.7325228E-2],"split_indices":[2,5,0,3,0,1,0,0,0],"split_type":[0,0,0,0,0,0,0,0,0],"sum_hessian":[3.6265933E2,2.2953728E2,1.3312206E2,1.7407614E2,5.546113E1,1.372882E2,3.6787956E1,8.531396E1,5.197423E1],"tree_param":{"num_deleted":"0","num_feature":"7","num_nodes":"9","size_leaf_vector":"0"}},{"base_weights":[-5.1205385E-1,-5.837613E-1,2.2034256E-2,-5.78671E-1,8.8805974E-1],"categories":[],"categories_nodes":[],"categories_segments":[],"categories_sizes":[],"default_left":[true,false,true,false,false],"id":64,"left_children":[1,-1,3,-1,-1],"loss_changes":[1.1148102E1,0E0,1.891932E1,0E0,0E0],"parents":[2147483647,0,0,2,2],"right_children":[2,-1,4,-1,-1],"split_conditions":[1.003E3,-2.9188065E-2,5E-1,-2.893355E-2,4.4402987E-2],"split_indices":[1,0,5,0,0],"split_type":[0,0,0,0,0],"sum_hessian":[2.8975208E2,2.5537239E2,3.437967E1,2.0495256E1,1.3884411E1],"tree_param":{"num_deleted":"0","num_feature":"7","num_nodes":"5","size_leaf_vector":"0"}},{"base_weights":[4.5184064E-1,2.656366E-1,6.882298E-1,3.2206666E-2,6.724333E-1,7.174824E-1,3.8288462E-1,-2.6693228E-1,6.943774E-1,7.240249E-1,2.8468376E-2,-2.1966076E-2,4.551818E-1,-2.2067323E-1,-6.344862E-1,7.1621335E-1,-9.583422E-2,7.311531E-1,3.140196E-1,-3.9141613E-1,1.5639313E-1,7.9302534E-2,-1.3760695E-1,4.9428877E-1,1.3049039E-1],"categories":[],"categories_nodes":[],"categories_segments":[],"categories_sizes":[],"default_left":[true,true,true,true,true,false,true,true,true,true,true,true,true,false,false,false,false,false,false,false,false,false,false,false,false],"id":65,"left_children":[1,3,5,7,9,-1,11,13,15,17,19,21,23,-1,-1,-1,-1,-1,-1,-1,-1,-1,-1,-1,-1],"loss_changes":[2.0992165E1,2.5686193E1,1.6130066E0,3.4467026E1,3.2571259E0,0E0,6.1356616E-1,1.8992186E0,1.0027046E0,3.723526E-2,5.1019144E-1,5.867441E-2,1.582501E-1,0E0,0E0,0E0,0E0,0E0,0E0,0E0,0E0,0E0,0E0,0E0,0E0],"parents":[2147483647,0,0,1,1,2,2,3,3,4,4,6,6,7,7,8,8,9,9,10,10,11,11,12,12],"right_children":[2,4,6,8,10,-1,12,14,16,18,20,22,24,-1,-1,-1,-1,-1,-1,-1,-1,-1,-1,-1,-1],"split_conditions":[5E-1,5E-1,1.079E3,5E-1,2.308E3,3.587412E-2,1.98E3,9.96E2,4.0915E3,1.224E3,3.3005E3,1.5975E3,5.621E3,-1.1033662E-2,-3.172431E-2,3.5810668E-2,-4.791711E-3,3.6557656E-2,1.570098E-2,-1.9570807E-2,7.819656E-3,3.965127E-3,-6.8803476E-3,2.4714438E-2,6.5245195E-3],"split_indices":[2,4,1,3,1,0,1,1,1,1,1,1,1,0,0,0,0,0,0,0,0,0,0,0,0],"split_type":[0,0,0,0,0,0,0,0,0,0,0,0,0,0,0,0,0,0,0,0,0,0,0,0,0],"sum_hessian":[4.8006775E2,2.697271E2,2.1034064E2,1.7206892E2,9.765819E1,1.9071965E2,1.9620993E1,1.1893591E2,5.313301E1,9.029948E1,7.3587112E0,3.078446E0,1.6542547E1,1.0706187E2,1.1874045E1,5.179539E1,1.3376205E0,8.79865E1,2.312972E0,1.2374196E0,6.1212916E0,1.8087385E0,1.2697074E0,1.42980995E1,2.2444472E0],"tree_param":{"num_deleted":"0","num_feature":"7","num_nodes":"25","size_leaf_vector":"0"}},{"base_weights":[-1.8875292E-1,-2.1740586E-2,-5.895215E-1,1.7605051E-1,-5.985034E-1,-2.4851787E-1,1.9346529E-1,-5.047006E-1,3.199362E-1,8.394533E-2,2.3190257E-1],"categories":[],"categories_nodes":[],"categories_segments":[],"categories_sizes":[],"default_left":[true,true,false,true,false,true,true,false,false,false,false],"id":66,"left_children":[1,3,-1,5,-1,7,9,-1,-1,-1,-1],"loss_changes":[2.4176765E1,2.932448E1,0E0,1.4639721E0,0E0,1.3240252E0,7.57277E-1,0E0,0E0,0E0,0E0],"parents":[2147483647,0,0,1,1,3,3,5,5,6,6],"right_children":[2,4,-1,6,-1,8,10,-1,-1,-1,-1],"split_conditions":[5E-1,5E-1,-2.9476076E-2,2.45E0,-2.9925171E-2,7.575E2,5.45E0,-2.523503E-2,1.599681E-2,4.1972664E-3,1.1595129E-2],"split_indices":[4,5,0,0,0,1,0,0,0,0,0],"split_type":[0,0,0,0,0,0,0,0,0,0,0],"sum_hessian":[3.6039825E2,2.5513152E2,1.0526672E2,1.9049814E2,6.463338E1,6.983028E0,1.8351512E2,4.8909826E0,2.0920455E0,4.8501865E1,1.3501324E2],"tree_param":{"num_deleted":"0","num_feature":"7","num_nodes":"11","size_leaf_vector":"0"}},{"base_weights":[-5.1192987E-1,-5.797762E-1,2.0157712E-2,-5.7226497E-1,8.5777634E-1],"categories":[],"categories_nodes":[],"categories_segments":[],"categories_sizes":[],"default_left":[true,false,true,false,false],"id":67,"left_children":[1,-1,3,-1,-1],"loss_changes":[1.0060463E1,0E0,1.659128E1,0E0,0E0],"parents":[2147483647,0,0,2,2],"right_children":[2,-1,4,-1,-1],"split_conditions":[1.324E3,-2.8988812E-2,5E-1,-2.8613249E-2,4.2888816E-2],"split_indices":[1,0,5,0,0],"split_type":[0,0,0,0,0],"sum_hessian":[2.7735803E2,2.4591222E2,3.144582E1,1.8604328E1,1.2841492E1],"tree_param":{"num_deleted":"0","num_feature":"7","num_nodes":"5","size_leaf_vector":"0"}},{"base_weights":[4.4070244E-1,2.6070666E-1,6.728858E-1,9.064214E-2,6.554029E-1,7.030511E-1,3.3871347E-1,1.3206203E-1,-3.1492403E-1,6.996364E-1,1.8465708E-1,-1.6578812E-2,3.8727057E-1,-1.5559838E-2,1.6809373E-1,-5.2875173E-1,-2.2334926E-1,-2.549032E-1,3.458962E-1,1.645005E-2,4.316546E-1],"categories":[],"categories_nodes":[],"categories_segments":[],"categories_sizes":[],"default_left":[true,true,true,true,true,false,true,true,true,false,true,false,true,false,false,false,false,false,false,false,false],"id":68,"left_children":[1,3,5,7,9,-1,11,13,15,-1,17,-1,19,-1,-1,-1,-1,-1,-1,-1,-1],"loss_changes":[1.918612E1,1.7567522E1,1.7948914E0,3.1440532E0,1.5140648E0,0E0,3.277862E-1,8.976939E-1,2.2280169E-1,0E0,6.6487384E-1,0E0,2.632978E-1,0E0,0E0,0E0,0E0,0E0,0E0,0E0,0E0],"parents":[2147483647,0,0,1,1,2,2,3,3,4,4,6,6,7,7,8,8,10,10,12,12],"right_children":[2,4,6,8,10,-1,12,14,16,-1,18,-1,20,-1,-1,-1,-1,-1,-1,-1,-1],"split_conditions":[5E-1,5E-1,1.079E3,9.665E2,1.4355E3,3.5152555E-2,1.991E3,5.05E0,1.8625E3,3.498182E-2,2.8205E3,-8.289406E-4,3.75E0,-7.779919E-4,8.404686E-3,-2.6437586E-2,-1.1167463E-2,-1.274516E-2,1.7294811E-2,8.225025E-4,2.158273E-2],"split_indices":[2,3,1,1,1,0,1,0,1,0,1,0,0,0,0,0,0,0,0,0,0],"split_type":[0,0,0,0,0,0,0,0,0,0,0,0,0,0,0,0,0,0,0,0,0],"sum_hessian":[4.622833E2,2.6160318E2,2.0068013E2,1.8368684E2,7.791631E1,1.8305235E2,1.7627771E1,1.6727742E2,1.640943E1,7.077932E1,7.136994E0,2.1986709E0,1.5429101E1,3.293026E1,1.3434717E2,3.4888802E0,1.2920548E1,1.7594867E0,5.377507E0,1.7958372E0,1.3633265E1],"tree_param":{"num_deleted":"0","num_feature":"7","num_nodes":"21","size_leaf_vector":"0"}},{"base_weights":[-1.7413342E-1,-3.3322558E-2,-5.8716905E-1,1.358959E-1,-5.806185E-1,3.7668314E-2,1.9230178E-1,7.122475E-2,-3.7603852E-1,1.3023797E-1,2.820574E-1],"categories":[],"categories_nodes":[],"categories_segments":[],"categories_sizes":[],"default_left":[true,true,false,true,false,true,true,false,false,false,false],"id":69,"left_children":[1,3,-1,5,-1,7,9,-1,-1,-1,-1],"loss_changes":[1.9990665E1,2.3939823E1,0E0,1.0876126E0,0E0,1.0447124E0,6.6115284E-1,0E0,0E0,0E0,0E0],"parents":[2147483647,0,0,1,1,3,3,5,5,6,6],"right_children":[2,4,-1,6,-1,8,10,-1,-1,-1,-1],"split_conditions":[5E-1,5E-1,-2.9358452E-2,6.1499996E0,-2.9030925E-2,5.95E0,5E-1,3.5612376E-3,-1.8801926E-2,6.5118982E-3,1.4102871E-2],"split_indices":[5,3,0,0,0,0,6,0,0,0,0],"split_type":[0,0,0,0,0,0,0,0,0,0,0],"sum_hessian":[3.4305542E2,2.5664236E2,8.641306E1,1.9660558E2,6.003679E1,7.232448E1,1.2428109E2,6.766398E1,4.6604986E0,7.492401E1,4.9357082E1],"tree_param":{"num_deleted":"0","num_feature":"7","num_nodes":"11","size_leaf_vector":"0"}},{"base_weights":[-5.047559E-1,-5.776449E-1,-3.4191737E-1,-3.715014E-1,-6.592934E-2,-4.0407845E-1,-2.8331354E-1,7.4426024E-3,-1.9492748E-1,-1.8976875E-1,-3.8282728E-1,9.613033E-2,-1.3921446E-1,-3.2936403E-1,4.0359467E-2],"categories":[],"categories_nodes":[],"categories_segments":[],"categories_sizes":[],"default_left":[true,false,true,true,true,false,true,true,true,false,false,false,false,false,false],"id":70,"left_children":[1,-1,3,5,7,-1,9,11,13,-1,-1,-1,-1,-1,-1],"loss_changes":[3.0309525E0,0E0,6.822281E-1,1.094923E-1,9.2273064E-2,0E0,1.54271E-1,1.0546885E-1,1.2450318E-1,0E0,0E0,0E0,0E0,0E0,0E0],"parents":[2147483647,0,0,2,2,3,3,4,4,6,6,7,7,8,8],"right_children":[2,-1,4,6,8,-1,10,12,14,-1,-1,-1,-1,-1,-1],"split_conditions":[5E-1,-2.8882245E-2,1.5E0,5E-1,5E-1,-2.0203924E-2,5E-1,5E-1,5E-1,-9.488437E-3,-1.9141365E-2,4.806516E-3,-6.960723E-3,-1.6468203E-2,2.0179735E-3],"split_indices":[5,0,3,4,2,0,2,6,6,0,0,0,0,0,0],"split_type":[0,0,0,0,0,0,0,0,0,0,0,0,0,0,0],"sum_hessian":[2.7100464E2,1.85448E2,8.555663E1,7.6960884E1,8.595753E0,5.3584476E1,2.3376408E1,6.0799093E0,2.5158436E0,1.3547995E1,9.828413E0,4.0034385E0,2.0764709E0,1.3465956E0,1.1692479E0],"tree_param":{"num_deleted":"0","num_feature":"7","num_nodes":"15","size_leaf_vector":"0"}},{"base_weights":[4.3269807E-1,2.5866532E-1,6.6648686E-1,2.394527E-2,6.6370773E-1,7.094433E-1,5.5665296E-1,-2.8877646E-1,6.6052717E-1,7.292916E-1,4.3238422E-1,-6.969615E-1,7.1591586E-1,-1.3686386E-1,6.860684E-1,4.8473942E-1,1.7365938E-1],"categories":[],"categories_nodes":[],"categories_segments":[],"categories_sizes":[],"default_left":[true,true,true,true,true,false,false,true,true,false,true,false,false,false,false,false,false],"id":71,"left_children":[1,3,5,7,9,-1,-1,11,13,-1,15,-1,-1,-1,-1,-1,-1],"loss_changes":[1.893798E1,2.5738235E1,5.4776E-1,3.453937E1,1.1918983E0,0E0,0E0,4.8234333E1,1.2577076E0,0E0,2.4635363E-1,0E0,0E0,0E0,0E0,0E0,0E0],"parents":[2147483647,0,0,1,1,2,2,3,3,4,4,7,7,8,8,10,10],"right_children":[2,4,6,8,10,-1,-1,12,14,-1,16,-1,-1,-1,-1,-1,-1],"split_conditions":[5E-1,5E-1,5E-1,5E-1,5E-1,3.5472166E-2,2.7832648E-2,5E-1,1.55E0,3.6464583E-2,1.0299999E1,-3.4848075E-2,3.5795793E-2,-6.843193E-3,3.4303423E-2,2.4236972E-2,8.682969E-3],"split_indices":[2,4,5,5,5,0,0,3,0,0,0,0,0,0,0,0,0],"split_type":[0,0,0,0,0,0,0,0,0,0,0,0,0,0,0,0,0],"sum_hessian":[4.686936E2,2.69892E2,1.9880162E2,1.7154286E2,9.834912E1,1.3898488E2,5.9816753E1,1.1539921E2,5.6143658E1,7.49476E1,2.3401522E1,8.2277794E1,3.3121418E1,1.6072488E0,5.4536407E1,1.8736464E1,4.665057E0],"tree_param":{"num_deleted":"0","num_feature":"7","num_nodes":"17","size_leaf_vector":"0"}},{"base_weights":[-1.4815545E-1,7.271409E-2,-5.838793E-1,3.3656996E-1,-5.8928233E-1,6.0873127E-1,-6.0343015E-1,8.644438E-1,-5.8064216E-1],"categories":[],"categories_nodes":[],"categories_segments":[],"categories_sizes":[],"default_left":[true,true,false,true,false,true,false,false,false],"id":72,"left_children":[1,3,-1,5,-1,7,-1,-1,-1],"loss_changes":[3.2452873E1,3.9390514E1,0E0,4.157373E1,0E0,3.8641487E1,0E0,0E0,0E0],"parents":[2147483647,0,0,1,1,3,3,5,5],"right_children":[2,4,-1,6,-1,8,-1,-1,-1],"split_conditions":[5E-1,5E-1,-2.9193966E-2,5E-1,-2.9464116E-2,5E-1,-3.0171508E-2,4.322219E-2,-2.903211E-2],"split_indices":[2,4,0,5,0,3,0,0,0],"split_type":[0,0,0,0,0,0,0,0,0],"sum_hessian":[3.357732E2,2.2337628E2,1.12396904E2,1.6006844E2,6.3307854E1,1.2440226E2,3.5666176E1,1.0261373E2,2.1788523E1],"tree_param":{"num_deleted":"0","num_feature":"7","num_nodes":"9","size_leaf_vector":"0"}},{"base_weights":[-4.9232063E-1,-5.7258314E-1,5.958848E-2,2.7727452E-3,4.4823453E-1,2.3721212E-1,-1.7627744E-1,5.8268046E-1,9.484963E-3,4.0254104E-1,-7.980323E-2,2.49721E-1,-2.6113647E-1],"categories":[],"categories_nodes":[],"categories_segments":[],"categories_sizes":[],"default_left":[true,false,true,true,true,true,true,false,false,false,false,false,false],"id":73,"left_children":[1,-1,3,5,7,9,11,-1,-1,-1,-1,-1,-1],"loss_changes":[1.1900887E1,0E0,7.6977926E-1,1.3628247E0,2.5680995E-1,7.687012E-1,7.3096895E-1,0E0,0E0,0E0,0E0,0E0,0E0],"parents":[2147483647,0,0,2,2,3,3,4,4,5,5,6,6],"right_children":[2,-1,4,6,8,10,12,-1,-1,-1,-1,-1,-1],"split_conditions":[1.003E3,-2.8629158E-2,1.1E1,5.8500004E0,1.25E1,5E-1,1.452E3,2.9134024E-2,4.7424814E-4,2.0127052E-2,-3.9901617E-3,1.2486051E-2,-1.3056824E-2],"split_indices":[1,0,0,0,0,2,1,0,0,0,0,0,0],"split_type":[0,0,0,0,0,0,0,0,0,0,0,0,0],"sum_hessian":[2.6688733E2,2.3296976E2,3.3917564E1,3.0470282E1,3.4472823E0,1.3053649E1,1.7416632E1,2.387602E0,1.0596801E0,8.402052E0,4.6515975E0,2.5703769E0,1.4846255E1],"tree_param":{"num_deleted":"0","num_feature":"7","num_nodes":"13","size_leaf_vector":"0"}},{"base_weights":[4.0168005E-1,2.896091E-1,6.365178E-1,1.352323E-1,6.117394E-1,6.810737E-1,2.3039094E-1,2.4368304E-1,7.705478E-2,7.001312E-1,-6.15159E-1,6.6894007E-1,-5.984192E-1,2.1675658E-1,5.140999E-1,-3.3326203E-1,8.820785E-2],"categories":[],"categories_nodes":[],"categories_segments":[],"categories_sizes":[],"default_left":[true,true,true,true,true,false,true,true,true,false,false,false,false,false,false,false,false],"id":74,"left_children":[1,3,5,7,9,-1,11,13,15,-1,-1,-1,-1,-1,-1,-1,-1],"loss_changes":[1.163636E1,1.5128399E1,2.4535675E0,1.2939842E0,1.1146767E1,0E0,6.133547E0,4.1415167E-1,6.5580887E-1,0E0,0E0,0E0,0E0,0E0,0E0,0E0,0E0],"parents":[2147483647,0,0,1,1,2,2,3,3,4,4,6,6,7,7,8,8],"right_children":[2,4,6,8,10,-1,12,14,16,-1,-1,-1,-1,-1,-1,-1,-1],"split_conditions":[5E-1,5E-1,1.2555E3,5.75E0,9.96E2,3.4053687E-2,5E-1,2.2705E3,5.8500004E0,3.500656E-2,-3.0757949E-2,3.3447005E-2,-2.992096E-2,1.083783E-2,2.5704995E-2,-1.6663102E-2,4.4103926E-3],"split_indices":[4,5,1,0,1,0,5,1,0,0,0,0,0,0,0,0,0],"split_type":[0,0,0,0,0,0,0,0,0,0,0,0,0,0,0,0,0],"sum_hessian":[4.4814035E2,3.048777E2,1.4326265E2,2.0706448E2,9.781321E1,1.284892E2,1.4773455E1,7.118236E1,1.3588213E2,9.1640335E1,6.172875E0,9.787485E0,4.9859705E0,6.637473E1,4.807626E0,2.8315039E0,1.3305063E2],"tree_param":{"num_deleted":"0","num_feature":"7","num_nodes":"17","size_leaf_vector":"0"}},{"base_weights":[-1.8677574E-1,3.7369654E-2,-5.8302087E-1,2.878684E-1,-5.836457E-1,5.523608E-1,-5.9652036E-1,5.5826604E-1,2.9144716E-1],"categories":[],"categories_nodes":[],"categories_segments":[],"categories_sizes":[],"default_left":[true,true,false,true,false,true,false,false,false],"id":75,"left_children":[1,3,-1,5,-1,7,-1,-1,-1],"loss_changes":[2.9102194E1,3.28464E1,0E0,3.5499763E1,0E0,1.6426086E-2,0E0,0E0,0E0],"parents":[2147483647,0,0,1,1,3,3,5,5],"right_children":[2,4,-1,6,-1,8,-1,-1,-1],"split_conditions":[5E-1,5E-1,-2.9151043E-2,5E-1,-2.9182285E-2,3.58E3,-2.9826019E-2,2.7913302E-2,1.4572359E-2],"split_indices":[2,4,0,5,0,1,0,0,0],"split_type":[0,0,0,0,0,0,0,0,0],"sum_hessian":[3.2642114E2,2.0906454E2,1.173566E2,1.4935551E2,5.970903E1,1.15260284E2,3.409523E1,1.11594894E2,3.6653867E0],"tree_param":{"num_deleted":"0","num_feature":"7","num_nodes":"9","size_leaf_vector":"0"}},{"base_weights":[-4.8634958E-1,-5.6911963E-1,8.102979E-2,-5.605905E-1,8.414055E-1],"categories":[],"categories_nodes":[],"categories_segments":[],"categories_sizes":[],"default_left":[true,false,true,false,false],"id":76,"left_children":[1,-1,3,-1,-1],"loss_changes":[1.2067932E1,0E0,1.6798481E1,0E0,0E0],"parents":[2147483647,0,0,2,2],"right_children":[2,-1,4,-1,-1],"split_conditions":[1.0215E3,-2.8455982E-2,5E-1,-2.8029526E-2,4.2070277E-2],"split_indices":[1,0,5,0,0],"split_type":[0,0,0,0,0],"sum_hessian":[2.549901E2,2.225248E2,3.2465294E1,1.7750126E1,1.4715167E1],"tree_param":{"num_deleted":"0","num_feature":"7","num_nodes":"5","size_leaf_vector":"0"}},{"base_weights":[4.0523306E-1,2.3125823E-1,6.450495E-1,-4.4786677E-4,6.4528155E-1,6.73112E-1,3.7344828E-1,-2.9970762E-1,6.1866087E-1,6.8963027E-1,2.013649E-1,6.8950015E-1,-6.054425E-1,-3.0481324E-1,-1.8028768E-2,7.1655434E-1,-5.433466E-1,6.400676E-1,-5.394929E-1],"categories":[],"categories_nodes":[],"categories_segments":[],"categories_sizes":[],"default_left":[true,true,true,true,true,false,true,true,true,false,true,false,false,false,false,false,false,false,false],"id":77,"left_children":[1,3,5,7,9,-1,11,13,15,-1,17,-1,-1,-1,-1,-1,-1,-1,-1],"loss_changes":[1.8553055E1,2.5072123E1,1.1808167E0,3.141711E1,1.7074051E0,0E0,6.556509E0,1.5890312E-1,6.6749363E0,0E0,3.572866E0,0E0,0E0,0E0,0E0,0E0,0E0,0E0,0E0],"parents":[2147483647,0,0,1,1,2,2,3,3,4,4,6,6,7,7,8,8,10,10],"right_children":[2,4,6,8,10,-1,12,14,16,-1,18,-1,-1,-1,-1,-1,-1,-1,-1],"split_conditions":[5E-1,5E-1,1.038E3,5E-1,1.2565E3,3.36556E-2,5E-1,3.935E3,9.96E2,3.4481514E-2,5E-1,3.447501E-2,-3.0272126E-2,-1.5240662E-2,-9.014384E-4,3.582772E-2,-2.716733E-2,3.200338E-2,-2.6974646E-2],"split_indices":[2,4,1,5,1,0,5,1,1,0,5,0,0,0,0,0,0,0,0],"split_type":[0,0,0,0,0,0,0,0,0,0,0,0,0,0,0,0,0,0,0],"sum_hessian":[4.4725793E2,2.603508E2,1.8690714E2,1.6756999E2,9.27808E1,1.6806406E2,1.8843077E1,1.1331339E2,5.4256603E1,8.3850365E1,8.930437E0,1.4467594E1,4.3754826E0,1.1121541E2,2.0979798E0,5.0394463E1,3.862139E0,5.694472E0,3.235965E0],"tree_param":{"num_deleted":"0","num_feature":"7","num_nodes":"19","size_leaf_vector":"0"}},{"base_weights":[-1.5817563E-1,6.2972814E-2,-5.774552E-1,2.9621065E-1,-5.790102E-1,5.627748E-1,-5.912555E-1,8.3046055E-1,-5.8202493E-1],"categories":[],"categories_nodes":[],"categories_segments":[],"categories_sizes":[],"default_left":[true,true,false,true,false,true,false,false,false],"id":78,"left_children":[1,3,-1,5,-1,7,-1,-1,-1],"loss_changes":[2.9621342E1,3.158456E1,0E0,3.6893066E1,0E0,3.706086E1,0E0,0E0,0E0],"parents":[2147483647,0,0,1,1,3,3,5,5],"right_children":[2,4,-1,6,-1,8,-1,-1,-1],"split_conditions":[5E-1,5E-1,-2.8872762E-2,5E-1,-2.895051E-2,5E-1,-2.9562775E-2,4.152303E-2,-2.9101247E-2],"split_indices":[2,4,0,5,0,3,0,0,0],"split_type":[0,0,0,0,0,0,0,0,0],"sum_hessian":[3.1806827E2,2.0879137E2,1.0927691E2,1.5354556E2,5.5245796E1,1.1836014E2,3.518543E1,9.615178E1,2.220836E1],"tree_param":{"num_deleted":"0","num_feature":"7","num_nodes":"9","size_leaf_vector":"0"}},{"base_weights":[-4.9227276E-1,-5.6563765E-1,2.9199475E-2,-5.5722E-1,8.2198817E-1],"categories":[],"categories_nodes":[],"categories_segments":[],"categories_sizes":[],"default_left":[true,false,true,false,false],"id":79,"left_children":[1,-1,3,-1,-1],"loss_changes":[9.414207E0,0E0,1.4985146E1,0E0,0E0],"parents":[2147483647,0,0,2,2],"right_children":[2,-1,4,-1,-1],"split_conditions":[1.003E3,-2.8281882E-2,5E-1,-2.7861E-2,4.109941E-2],"split_indices":[1,0,5,0,0],"split_type":[0,0,0,0,0],"sum_hessian":[2.4464151E2,2.1439412E2,3.0247381E1,1.755743E1,1.2689951E1],"tree_param":{"num_deleted":"0","num_feature":"7","num_nodes":"5","size_leaf_vector":"0"}},{"base_weights":[3.879454E-1,2.0958857E-1,6.3673735E-1,-2.0378824E-2,6.3619566E-1,6.789585E-1,5.400016E-1,-2.840097E-1,6.2232E-1,6.9028497E-1,4.6003196E-1,-1.85266E-1,-3.2539546E-1,-1.3575713E-1,6.5065724E-1,4.967847E-1,1.9837804E-1],"categories":[],"categories_nodes":[],"categories_segments":[],"categories_sizes":[],"default_left":[true,true,true,true,true,false,false,true,true,false,true,false,false,false,false,false,false],"id":80,"left_children":[1,3,5,7,9,-1,-1,11,13,-1,15,-1,-1,-1,-1,-1,-1],"loss_changes":[1.8742386E1,2.4466236E1,3.5681152E-1,2.7781322E1,5.146065E-1,0E0,0E0,4.14649E-1,1.1130867E0,0E0,1.2756729E-1,0E0,0E0,0E0,0E0,0E0,0E0],"parents":[2147483647,0,0,1,1,2,2,3,3,4,4,7,7,8,8,10,10],"right_children":[2,4,6,8,10,-1,-1,12,14,-1,16,-1,-1,-1,-1,-1,-1],"split_conditions":[5E-1,5E-1,5E-1,5E-1,5E-1,3.3947926E-2,2.7000079E-2,5.7E0,1.65E0,3.451425E-2,1.1450001E1,-9.2633E-3,-1.6269773E-2,-6.7878566E-3,3.2532863E-2,2.4839235E-2,9.918902E-3],"split_indices":[2,4,5,5,5,0,0,0,0,0,0,0,0,0,0,0,0],"split_type":[0,0,0,0,0,0,0,0,0,0,0,0,0,0,0,0,0],"sum_hessian":[4.2438318E2,2.4825426E2,1.7612894E2,1.6192108E2,8.633317E1,1.18423386E2,5.7705544E1,1.1521765E2,4.6703434E1,6.381959E1,2.2513577E1,3.5645767E1,7.9571884E1,1.5462908E0,4.5157143E1,1.8952778E1,3.5607984E0],"tree_param":{"num_deleted":"0","num_feature":"7","num_nodes":"17","size_leaf_vector":"0"}},{"base_weights":[-1.4946811E-1,6.0557414E-2,-5.7218707E-1,2.905446E-1,-5.7461154E-1,5.457821E-1,-5.8563656E-1],"categories":[],"categories_nodes":[],"categories_segments":[],"categories_sizes":[],"default_left":[true,true,false,true,false,false,false],"id":81,"left_children":[1,3,-1,5,-1,-1,-1],"loss_changes":[2.753872E1,3.0532616E1,0E0,3.4597122E1,0E0,0E0,0E0],"parents":[2147483647,0,0,1,1,3,3],"right_children":[2,4,-1,6,-1,-1,-1],"split_conditions":[5E-1,5E-1,-2.8609354E-2,5E-1,-2.8730577E-2,2.7289106E-2,-2.9281829E-2],"split_indices":[2,4,0,5,0,0,0],"split_type":[0,0,0,0,0,0,0],"sum_hessian":[3.087941E2,2.068691E2,1.0192499E2,1.5227477E2,5.4594326E1,1.1821503E2,3.4059746E1],"tree_param":{"num_deleted":"0","num_feature":"7","num_nodes":"7","size_leaf_vector":"0"}},{"base_weights":[-4.77103E-1,-5.623544E-1,7.397118E-2,-5.5341774E-1,8.1063384E-1],"categories":[],"categories_nodes":[],"categories_segments":[],"categories_sizes":[],"default_left":[true,false,true,false,false],"id":82,"left_children":[1,-1,3,-1,-1],"loss_changes":[1.1230755E1,0E0,1.5604404E1,0E0,0E0],"parents":[2147483647,0,0,2,2],"right_children":[2,-1,4,-1,-1],"split_conditions":[1.003E3,-2.811772E-2,5E-1,-2.7670888E-2,4.053169E-2],"split_indices":[1,0,5,0,0],"split_type":[0,0,0,0,0],"sum_hessian":[2.3716948E2,2.053771E2,3.1792377E1,1.7303965E1,1.4488411E1],"tree_param":{"num_deleted":"0","num_feature":"7","num_nodes":"5","size_leaf_vector":"0"}},{"base_weights":[4.0345934E-1,2.4740985E-1,6.2087345E-1,3.6167048E-2,6.2635183E-1,6.5372485E-1,2.8932697E-1,-2.4152777E-1,6.158207E-1,6.6402435E-1,2.4167018E-1,6.536948E-1,-6.0076606E-1,-2.5119865E-1,2.8538901E-2,6.903308E-1,-4.9125797E-1,6.151902E-1,-5.073192E-1],"categories":[],"categories_nodes":[],"categories_segments":[],"categories_sizes":[],"default_left":[true,true,true,true,true,false,true,true,true,false,true,false,false,false,false,false,false,false,false],"id":83,"left_children":[1,3,5,7,9,-1,11,13,15,-1,17,-1,-1,-1,-1,-1,-1,-1,-1],"loss_changes":[1.4350777E1,2.0032898E1,1.7492752E0,2.6213684E1,1.1382103E0,0E0,6.178136E0,2.9498148E-1,4.6887455E0,0E0,2.9881613E0,0E0,0E0,0E0,0E0,0E0,0E0,0E0,0E0],"parents":[2147483647,0,0,1,1,2,2,3,3,4,4,6,6,7,7,8,8,10,10],"right_children":[2,4,6,8,10,-1,12,14,16,-1,18,-1,-1,-1,-1,-1,-1,-1,-1],"split_conditions":[5E-1,5E-1,1.2675E3,5E-1,1.2565E3,3.2686245E-2,5E-1,3.5025E3,9.745E2,3.3201218E-2,5E-1,3.268474E-2,-3.0038303E-2,-1.2559933E-2,1.4269451E-3,3.451654E-2,-2.4562899E-2,3.0759512E-2,-2.5365962E-2],"split_indices":[2,4,1,5,1,0,5,1,1,0,5,0,0,0,0,0,0,0,0],"split_type":[0,0,0,0,0,0,0,0,0,0,0,0,0,0,0,0,0,0,0],"sum_hessian":[4.2651288E2,2.4954169E2,1.7697118E2,1.6092744E2,8.861424E1,1.6013264E2,1.6838541E1,1.091975E2,5.1729946E1,8.004877E1,8.565481E0,1.2136104E1,4.7024384E0,1.05489845E2,3.7076497E0,4.88206E1,2.9093487E0,5.8344755E0,2.731006E0],"tree_param":{"num_deleted":"0","num_feature":"7","num_nodes":"19","size_leaf_vector":"0"}},{"base_weights":[-1.5074511E-1,-2.576113E-3,-5.6354916E-1,1.6551602E-1,-5.695991E-1,3.5413173E-1,-5.760534E-1,2.5812387E-1,3.9144874E-1],"categories":[],"categories_nodes":[],"categories_segments":[],"categories_sizes":[],"default_left":[true,true,false,true,false,true,false,false,false],"id":84,"left_children":[1,3,-1,5,-1,7,-1,-1,-1],"loss_changes":[1.8582277E1,2.1499937E1,0E0,2.4542494E1,0E0,3.9818E-1,0E0,0E0,0E0],"parents":[2147483647,0,0,1,1,3,3,5,5],"right_children":[2,4,-1,6,-1,8,-1,-1,-1],"split_conditions":[5E-1,5E-1,-2.8177459E-2,5E-1,-2.8479954E-2,5.45E0,-2.8802669E-2,1.2906194E-2,1.9572437E-2],"split_indices":[4,5,0,3,0,0,0,0,0],"split_type":[0,0,0,0,0,0,0,0,0],"sum_hessian":[3.0283066E2,2.235849E2,7.924576E1,1.7300594E2,5.0578953E1,1.3834166E2,3.4664284E1,4.0937138E1,9.740452E1],"tree_param":{"num_deleted":"0","num_feature":"7","num_nodes":"9","size_leaf_vector":"0"}},{"base_weights":[-4.696294E-1,-5.593328E-1,9.480865E-2,2.7952796E-2,3.6318E-1,6.7422606E-2,-3.5867035E-1,5.2752405E-1,3.794905E-2,1.5776636E-2,2.9985356E-1],"categories":[],"categories_nodes":[],"categories_segments":[],"categories_sizes":[],"default_left":[true,false,true,true,true,true,false,false,false,false,false],"id":85,"left_children":[1,-1,3,5,7,9,-1,-1,-1,-1,-1],"loss_changes":[1.1523464E1,0E0,5.6259054E-1,4.3068692E-1,3.1579888E-1,2.9552647E-1,0E0,0E0,0E0,0E0,0E0],"parents":[2147483647,0,0,2,2,3,3,4,4,5,5],"right_children":[2,-1,4,6,8,10,-1,-1,-1,-1,-1],"split_conditions":[1.003E3,-2.7966639E-2,5.373E3,4.837E3,5E-1,4.1385E3,-1.7933518E-2,2.6376203E-2,1.8974526E-3,7.888318E-4,1.4992679E-2],"split_indices":[1,0,1,1,2,1,0,0,0,0,0],"split_type":[0,0,0,0,0,0,0,0,0,0,0],"sum_hessian":[2.2554514E2,1.9462361E2,3.0921532E1,2.5638662E1,5.282869E0,2.4012838E1,1.625825E0,3.0962763E0,2.1865928E0,2.0520971E1,3.4918666E0],"tree_param":{"num_deleted":"0","num_feature":"7","num_nodes":"11","size_leaf_vector":"0"}},{"base_weights":[3.7664545E-1,2.1964385E-1,6.055867E-1,2.4439315E-3,6.0054564E-1,6.431565E-1,2.572749E-1,-2.7756995E-1,6.725851E-1,6.5471715E-1,1.3244249E-1,8.601319E-2,4.133285E-1,-2.436109E-1,-5.898121E-1,6.812139E-1,2.0981008E-1,2.1017236E-1,-1.2916058E-2,3.2890868E-1,-2.813956E-1,5.074015E-1,-1.0444541E-2],"categories":[],"categories_nodes":[],"categories_segments":[],"categories_sizes":[],"default_left":[true,true,true,true,true,false,true,true,true,false,true,true,true,false,false,false,false,false,false,false,false,false,false],"id":86,"left_children":[1,3,5,7,9,-1,11,13,15,-1,17,19,21,-1,-1,-1,-1,-1,-1,-1,-1,-1,-1],"loss_changes":[1.4698524E1,2.0378654E1,2.0236588E0,2.9813765E1,2.1816444E0,0E0,4.4428742E-1,1.0445814E0,4.4042587E-2,0E0,1.2171185E-1,9.691497E-1,3.6932564E-1,0E0,0E0,0E0,0E0,0E0,0E0,0E0,0E0,0E0,0E0],"parents":[2147483647,0,0,1,1,2,2,3,3,4,4,6,6,7,7,8,8,10,10,11,11,12,12],"right_children":[2,4,6,8,10,-1,12,14,16,-1,18,20,22,-1,-1,-1,-1,-1,-1,-1,-1,-1,-1],"split_conditions":[5E-1,5E-1,1.079E3,5E-1,1.195E3,3.2157827E-2,3.977E3,9.965E2,3.8665E3,3.2735858E-2,3.867E3,2.9475E3,5.621E3,-1.2180545E-2,-2.9490605E-2,3.4060698E-2,1.0490504E-2,1.0508618E-2,-6.4580294E-4,1.6445434E-2,-1.4069781E-2,2.5370076E-2,-5.222271E-4],"split_indices":[2,4,1,3,1,0,1,1,1,0,1,1,1,0,0,0,0,0,0,0,0,0,0],"split_type":[0,0,0,0,0,0,0,0,0,0,0,0,0,0,0,0,0,0,0,0,0,0,0],"sum_hessian":[4.116273E2,2.4533955E2,1.6628773E2,1.5688573E2,8.845383E1,1.4933371E2,1.6954018E1,1.1106414E2,4.5821583E1,7.892188E1,9.531941E0,8.822693E0,8.131326E0,1.0177538E2,9.28876E0,4.4519466E1,1.3021172E0,5.920233E0,3.6117084E0,5.374426E0,3.448267E0,6.492678E0,1.6386472E0],"tree_param":{"num_deleted":"0","num_feature":"7","num_nodes":"23","size_leaf_vector":"0"}},{"base_weights":[-1.585148E-1,6.384812E-2,-5.674394E-1,2.8542557E-1,-5.6385154E-1,5.127765E-1,-5.741972E-1,5.4100376E-1,3.0127934E-1],"categories":[],"categories_nodes":[],"categories_segments":[],"categories_sizes":[],"default_left":[true,true,false,true,false,true,false,false,false],"id":87,"left_children":[1,3,-1,5,-1,7,-1,-1,-1],"loss_changes":[2.6792934E1,2.6796618E1,0E0,2.8086815E1,0E0,5.1156425E-1,0E0,0E0,0E0],"parents":[2147483647,0,0,1,1,3,3,5,5],"right_children":[2,4,-1,6,-1,8,-1,-1,-1],"split_conditions":[5E-1,5E-1,-2.837197E-2,5E-1,-2.8192578E-2,1.055E1,-2.8709859E-2,2.7050188E-2,1.5063967E-2],"split_indices":[2,4,0,3,0,0,0,0,0],"split_type":[0,0,0,0,0,0,0,0,0],"sum_hessian":[2.932572E2,1.9050772E2,1.0274946E2,1.4120705E2,4.9300686E1,1.1199134E2,2.9215706E1,9.742996E1,1.4561378E1],"tree_param":{"num_deleted":"0","num_feature":"7","num_nodes":"9","size_leaf_vector":"0"}},{"base_weights":[-4.6404615E-1,-5.582712E-1,-2.689491E-1,-2.921767E-1,-5.582374E-2,2.5474833E-2,-1.914521E-1,1.4565866E-1,-1.4884444E-1,-2.8477985E-1,-3.0477159E-2],"categories":[],"categories_nodes":[],"categories_segments":[],"categories_sizes":[],"default_left":[true,false,true,false,true,true,true,false,false,false,false],"id":88,"left_children":[1,-1,3,-1,5,7,9,-1,-1,-1,-1],"loss_changes":[4.122162E0,0E0,3.6792946E-1,0E0,1.0261636E-1,1.5627894E-1,4.2993397E-2,0E0,0E0,0E0,0E0],"parents":[2147483647,0,0,2,2,4,4,5,5,6,6],"right_children":[2,-1,4,-1,6,8,10,-1,-1,-1,-1],"split_conditions":[5E-1,-2.7913561E-2,1.5E0,-1.4608835E-2,5E-1,5E-1,5E-1,7.2829328E-3,-7.442222E-3,-1.4238993E-2,-1.5238579E-3],"split_indices":[5,0,3,0,2,6,6,0,0,0,0],"split_type":[0,0,0,0,0,0,0,0,0,0,0],"sum_hessian":[2.3140477E2,1.5478673E2,7.661805E1,6.875394E1,7.8641105E0,5.4246373E0,2.4394732E0,3.3082147E0,2.1164227E0,1.0573587E0,1.3821145E0],"tree_param":{"num_deleted":"0","num_feature":"7","num_nodes":"11","size_leaf_vector":"0"}},{"base_weights":[3.7910405E-1,2.1766695E-1,5.998994E-1,9.152564E-3,6.008551E-1,6.3909936E-1,2.4202216E-1,-2.4361242E-1,5.604048E-1,6.459142E-1,2.1154436E-1,6.42038E-1,-6.076757E-1,-7.519654E-2,-2.8651962E-1,6.724878E-1,-5.4099673E-1,6.0598063E-1,-5.212075E-1],"categories":[],"categories_nodes":[],"categories_segments":[],"categories_sizes":[],"default_left":[true,true,true,true,true,false,true,true,true,false,true,false,false,false,false,false,false,false,false],"id":89,"left_children":[1,3,5,7,9,-1,11,13,15,-1,17,-1,-1,-1,-1,-1,-1,-1,-1],"loss_changes":[1.4444389E1,1.8992203E1,2.2600899E0,2.1733032E1,1.3329086E0,0E0,6.7129574E0,7.5140905E-1,6.416462E0,0E0,3.25729E0,0E0,0E0,0E0,0E0,0E0,0E0,0E0,0E0],"parents":[2147483647,0,0,1,1,2,2,3,3,4,4,6,6,7,7,8,8,10,10],"right_children":[2,4,6,8,10,-1,12,14,16,-1,18,-1,-1,-1,-1,-1,-1,-1,-1],"split_conditions":[5E-1,5E-1,1.079E3,5E-1,1.224E3,3.195497E-2,5E-1,4.95E0,9.96E2,3.229571E-2,5E-1,3.21019E-2,-3.0383784E-2,-3.7598272E-3,-1.4325981E-2,3.3624392E-2,-2.7049838E-2,3.0299032E-2,-2.6060376E-2],"split_indices":[2,4,1,5,1,0,5,0,1,0,5,0,0,0,0,0,0,0,0],"split_type":[0,0,0,0,0,0,0,0,0,0,0,0,0,0,0,0,0,0,0],"sum_hessian":[4.0789743E2,2.3676776E2,1.7112965E2,1.539945E2,8.277325E1,1.535273E2,1.760237E1,1.05964714E2,4.8029793E1,7.359607E1,9.177179E0,1.2134263E1,5.468106E0,2.207403E1,8.3890686E1,4.3946995E1,4.0827956E0,6.078281E0,3.0988982E0],